{"learner":{"attributes":{"best_iteration":"126","best_ntree_limit":"127","scikit_learn":"{\"use_label_encoder\": false, \"n_estimators\": 127, \"objective\": \"binary:logistic\", \"max_depth\": null, \"max_leaves\": null, \"max_bin\": null, \"grow_policy\": null, \"learning_rate\": 0.2, \"verbosity\": null, \"booster\": null, \"tree_method\": null, \"gamma\": null, \"min_child_weight\": null, \"max_delta_step\": null, \"subsample\": 0.8, \"sampling_method\": null, \"colsample_bytree\": 0.8, \"colsample_bylevel\": null, \"colsample_bynode\": null, \"reg_alpha\": null, \"reg_lambda\": null, \"scale_pos_weight\": 12, \"base_score\": null, \"missing\": NaN, \"num_parallel_tree\": null, \"random_state\": 42, \"n_jobs\": null, \"monotone_constraints\": null, \"interaction_constraints\": null, \"importance_type\": null, \"gpu_id\": null, \"validate_parameters\": null, \"predictor\": null, \"enable_categorical\": false, \"max_cat_to_onehot\": null, \"eval_metric\": null, \"early_stopping_rounds\": null, \"callbacks\": null, \"classes_\": [0, 1], \"n_classes_\": 2, \"_estimator_type\": \"classifier\"}"},"feature_names":[],"feature_types":[],"gradient_booster":{"model":{"gbtree_model_param":{"num_parallel_tree":"1","num_trees":"127","size_leaf_vector":"0"},"tree_info":[0,0,0,0,0,0,0,0,0,0,0,0,0,0,0,0,0,0,0,0,0,0,0,0,0,0,0,0,0,0,0,0,0,0,0,0,0,0,0,0,0,0,0,0,0,0,0,0,0,0,0,0,0,0,0,0,0,0,0,0,0,0,0,0,0,0,0,0,0,0,0,0,0,0,0,0,0,0,0,0,0,0,0,0,0,0,0,0,0,0,0,0,0,0,0,0,0,0,0,0,0,0,0,0,0,0,0,0,0,0,0,0,0,0,0,0,0,0,0,0,0,0,0,0,0,0,0],"trees":[{"base_weights":[1.8636471E-1,1.0390105E0,-6.517064E-1,-5.945946E-1,1.2672087E0,-1.4114662E0,-2.5962787E-3,-1.4933333E0,6.306306E-1,1.3762095E0,-8.888889E-1,-3.5416666E-1,-1.663105E0,1.0618893E0,-3.8683128E-1,-1.9661016E0,2.3529412E-1,1.3710692E0,-1.1641791E0,8.588957E-2,1.5062656E0,6.666667E-1,-1.9266055E0,-1.2830188E0,7.7272725E-1,-1.7439582E0,3.75E-1,1.2890484E0,-1.0819672E0,2.3925668E-1,-1.0236967E0,-1.7241379E0,1.5348837E0,-1.4285715E0,1.5973154E0,1.5E0,-1.8545455E0,8.5714287E-1,-1.9130435E0,-1.0175439E0,1.5501752E0,-1.6521739E0,1.5714285E0,4.1269842E-1,-1.9477124E0,1.3197279E0,-1.7575758E0,-1.8311777E0,3.030303E-1,-1.6666666E0,1.4545455E0,1.3988868E0,-1.6363636E0,-1.8367347E0,1.5E0,5.966851E-1,-1.6028368E0,8.4615386E-1,-1.2795699E0,-1.3846154E0,1.8285714E0,-1.7777778E0,1.3009709E0,1.5E0,-1.8222222E0,1.6219839E0,1.6352202E-1,-1E0,1.8461539E0,-1.68E0,1.6190476E0,-1.5294118E0,1.641791E0,-1.8940767E0,7.368421E-1,1.7073171E0,-1.7241379E0,1.8E0,-1E0,1.4961832E0,-1.5789474E0,8.528073E-1,-1.884058E0,1.5E0,-1.9379845E0,-1.6923077E0,1.6097561E0,1.5862069E0,-1.388039E0],"categories":[],"categories_nodes":[],"categories_segments":[],"categories_sizes":[],"default_left":[1,1,1,1,1,1,1,1,1,1,1,1,1,1,1,0,1,1,1,1,1,1,0,1,1,1,1,1,1,1,1,0,0,0,1,0,0,1,0,1,1,0,1,1,0,1,0,1,1,0,1,1,0,0,0,1,1,1,1,0,0,0,0,0,0,0,0,0,0,0,0,0,0,0,0,0,0,0,0,0,0,0,0,0,0,0,0,0,0],"id":0,"left_children":[1,3,5,7,9,11,13,15,17,19,21,23,25,27,29,-1,31,33,35,37,39,41,-1,43,45,47,49,51,53,55,57,-1,-1,-1,59,-1,-1,61,-1,63,65,-1,67,69,-1,71,-1,73,75,-1,77,79,-1,-1,-1,81,83,85,87,-1,-1,-1,-1,-1,-1,-1,-1,-1,-1,-1,-1,-1,-1,-1,-1,-1,-1,-1,-1,-1,-1,-1,-1,-1,-1,-1,-1,-1,-1],"loss_changes":[1.5152249E3,3.9255127E2,5.2743933E2,1.4354161E2,2.1802588E2,1.3051074E2,2.367178E2,6.1755646E1,7.535269E1,1.4729529E2,7.392457E1,1.0147635E2,6.619812E1,7.614871E1,1.6980646E2,0E0,4.5936127E1,2.7459854E1,3.3589417E1,1.2728697E2,9.001123E1,4.193375E1,0E0,6.0541824E1,6.3218925E1,6.889014E1,3.7689392E1,4.703322E1,3.247407E1,1.4268056E2,1.0203453E2,0E0,0E0,0E0,2.821907E1,0E0,0E0,7.18952E1,0E0,3.160117E1,7.7875244E1,0E0,1.1736263E1,4.248127E1,0E0,3.623288E1,0E0,6.0715942E1,4.991462E1,0E0,1.1127274E1,4.140387E1,0E0,0E0,0E0,1.16609314E2,3.9563736E1,5.312195E1,6.001944E1,0E0,0E0,0E0,0E0,0E0,0E0,0E0,0E0,0E0,0E0,0E0,0E0,0E0,0E0,0E0,0E0,0E0,0E0,0E0,0E0,0E0,0E0,0E0,0E0,0E0,0E0,0E0,0E0,0E0,0E0],"parents":[2147483647,0,0,1,1,2,2,3,3,4,4,5,5,6,6,7,7,8,8,9,9,10,10,11,11,12,12,13,13,14,14,16,16,17,17,18,18,19,19,20,20,21,21,23,23,24,24,25,25,26,26,27,27,28,28,29,29,30,30,34,34,37,37,39,39,40,40,42,42,43,43,45,45,47,47,48,48,50,50,51,51,55,55,56,56,57,57,58,58],"right_children":[2,4,6,8,10,12,14,16,18,20,22,24,26,28,30,-1,32,34,36,38,40,42,-1,44,46,48,50,52,54,56,58,-1,-1,-1,60,-1,-1,62,-1,64,66,-1,68,70,-1,72,-1,74,76,-1,78,80,-1,-1,-1,82,84,86,88,-1,-1,-1,-1,-1,-1,-1,-1,-1,-1,-1,-1,-1,-1,-1,-1,-1,-1,-1,-1,-1,-1,-1,-1,-1,-1,-1,-1,-1,-1],"split_conditions":[1.195E-1,-3.0499998E-2,3.65E-2,1.25E-2,9.75E-2,8.5E-3,-6.65E-2,1.155E-1,-3.15E-2,-1.35E-2,-5.15E-2,-2.35E-2,1.385E-1,7.35E-2,1.65E-2,-3.9322034E-1,1.8E-2,5.3999998E-2,-1.5E-3,-1.25E-2,-1.5E-3,1.55E-2,-3.853211E-1,-5.9E-2,1.7E-2,5.95E-2,-2.75E-2,4.6499997E-2,5.05E-2,5.2500002E-2,-3.15E-2,-3.448276E-1,3.0697677E-1,-2.857143E-1,2.45E-2,3E-1,-3.709091E-1,-3.5499997E-2,-3.826087E-1,-8.3000004E-2,1.45E-2,-3.3043477E-1,4.5500003E-2,-2.45E-2,-3.895425E-1,3.4500003E-2,-3.5151514E-1,6.65E-2,2.85E-2,-3.3333334E-1,-5.6500003E-2,1.04499996E-1,-3.2727274E-1,-3.6734694E-1,3E-1,-3.0499998E-2,-3.85E-2,2.6500002E-2,-1.6E-1,-2.769231E-1,3.6571428E-1,-3.5555556E-1,2.6019418E-1,3E-1,-3.6444446E-1,3.243968E-1,3.2704405E-2,-2E-1,3.6923078E-1,-3.36E-1,3.2380953E-1,-3.0588236E-1,3.283582E-1,-3.7881535E-1,1.4736842E-1,3.4146342E-1,-3.448276E-1,3.5999998E-1,-2E-1,2.9923663E-1,-3.157895E-1,1.7056146E-1,-3.768116E-1,3E-1,-3.875969E-1,-3.3846155E-1,3.2195124E-1,3.172414E-1,-2.776078E-1],"split_indices":[0,2,5,4,22,43,122,97,111,63,177,56,149,43,34,0,238,45,45,25,119,210,0,194,114,144,233,114,88,22,184,0,0,0,235,0,0,118,0,0,108,0,37,76,0,46,0,76,193,0,21,163,0,0,0,12,45,91,249,0,0,0,0,0,0,0,0,0,0,0,0,0,0,0,0,0,0,0,0,0,0,0,0,0,0,0,0,0,0],"split_type":[0,0,0,0,0,0,0,0,0,0,0,0,0,0,0,0,0,0,0,0,0,0,0,0,0,0,0,0,0,0,0,0,0,0,0,0,0,0,0,0,0,0,0,0,0,0,0,0,0,0,0,0,0,0,0,0,0,0,0,0,0,0,0,0,0,0,0,0,0,0,0,0,0,0,0,0,0,0,0,0,0,0,0,0,0,0,0,0,0],"sum_hessian":[2.1185E3,1.05E3,1.0685E3,1.285E2,9.215E2,4.9175E2,5.7675E2,7.4E1,5.45E1,8.775E2,4.4E1,9.5E1,3.9675E2,1.525E2,4.2425E2,5.8E1,1.6E1,3.875E1,1.575E1,8.05E1,7.97E2,1.775E1,2.625E1,5.2E1,4.3E1,3.8175E2,1.5E1,1.3825E2,1.425E1,2.1425E2,2.1E2,6.25E0,9.75E0,2.5E0,3.625E1,3E0,1.275E1,5.85E1,2.2E1,1.325E1,7.8375E2,4.75E0,1.3E1,1.475E1,3.725E1,3.575E1,7.25E0,3.6625E2,1.55E1,5E0,1E1,1.3375E2,4.5E0,1.125E1,3E0,1.8E2,3.425E1,2.5E1,1.85E2,2.25E0,3.4E1,8E0,5.05E1,3E0,1.025E1,7.45E2,3.875E1,1E0,1.2E1,5.25E0,9.5E0,3.25E0,3.25E1,3.5775E2,8.5E0,9.25E0,6.25E0,9E0,1E0,1.3E2,3.75E0,1.6375E2,1.625E1,3E0,3.125E1,5.5E0,1.95E1,6.25E0,1.7875E2],"tree_param":{"num_deleted":"0","num_feature":"283","num_nodes":"89","size_leaf_vector":"0"}},{"base_weights":[1.5677494E-1,-6.133293E-1,7.0604295E-1,6.320818E-1,-9.6427083E-1,-2.7659887E-1,9.9350476E-1,-7.4801326E-1,1.148048E0,-1.0936071E0,4.0186483E-1,-5.1027036E-1,1.4228297E0,-1.5582502E-1,1.1705383E0,4.8036596E-1,-1.7027861E0,-1.5662993E0,1.296228E0,-1.2727671E0,-2.957687E-1,-1.2412212E0,1.389402E0,-2.6160544E-1,-1.715884E0,-1.1594623E0,1.6209985E0,-1.0198528E0,9.741875E-1,4.0645435E-1,1.3237518E0,-1.5485535E0,1.2824866E0,1.4285915E0,-5.44992E-1,-4.5717984E-1,-1.460478E0,7.7012104E-1,-8.863425E-1,-1.6887172E0,1.294069E0,-1.3917078E0,1.6717933E0,-9.170905E-1,3.3155167E-1,7.98797E-1,1.701262E0,-1.4025378E0,1.1341908E0,-1.517535E0,1.2627926E0,-1.8319657E0,6.668618E-1,-1.6790739E0,1.3572726E0,-1.1338742E0,1.5760022E0,1.5119609E0,-1.4800829E0,-1.5302836E0,1.2596284E0,-1.787638E0,1.0862649E-1,1.7301222E0,-1.5119405E0,-1.5979916E0,1.1938936E0,5.015105E-1,-1.5565257E0,7.456968E-1,1.7587503E0,2.2206035E-1,-1.5501006E0,-1.1907094E0,6.8391454E-1,-1.7410799E0,1.1828715E-1,-1.0514033E0,1.56631E0,1.4881035E0,-1.3750883E0,-7.856765E-1,9.834474E-1,-7.9820484E-1,1.3922971E0],"categories":[],"categories_nodes":[],"categories_segments":[],"categories_sizes":[],"default_left":[1,1,1,1,1,1,1,1,1,1,1,1,1,1,1,1,0,0,1,1,1,1,1,1,0,0,1,1,1,1,1,0,1,1,1,1,1,1,1,0,0,0,1,1,1,0,0,1,1,0,1,0,1,0,1,0,0,0,0,0,0,0,0,0,0,0,0,0,0,0,0,0,0,0,0,0,0,0,0,0,0,0,0,0,0],"id":1,"left_children":[1,3,5,7,9,11,13,15,17,19,21,23,25,27,29,31,-1,-1,33,35,37,39,41,43,-1,-1,45,47,49,51,53,-1,55,57,59,61,63,65,67,-1,-1,-1,69,71,73,-1,-1,75,77,-1,79,-1,81,-1,83,-1,-1,-1,-1,-1,-1,-1,-1,-1,-1,-1,-1,-1,-1,-1,-1,-1,-1,-1,-1,-1,-1,-1,-1,-1,-1,-1,-1,-1,-1],"loss_changes":[8.6671216E2,3.7348257E2,3.380677E2,1.348407E2,1.18110535E2,1.08515945E2,1.8847522E2,6.1578705E1,5.7273224E1,8.6623535E1,9.636805E1,7.131041E1,1.8804977E1,1.2245244E2,9.335144E1,4.0128567E1,0E0,0E0,3.265222E1,7.5378784E1,7.176077E1,2.762666E1,3.130922E1,7.7915054E1,0E0,0E0,6.957092E-1,6.01052E1,4.1046993E1,8.014667E1,6.947839E1,0E0,1.4087833E1,3.1892456E1,1.8810951E1,7.124971E1,6.884259E1,4.284443E1,6.87929E1,0E0,0E0,0E0,1.4229965E0,6.8913376E1,5.741587E1,0E0,0E0,3.1470268E1,1.2282643E1,0E0,3.1354431E1,0E0,5.688532E1,0E0,5.099756E1,0E0,0E0,0E0,0E0,0E0,0E0,0E0,0E0,0E0,0E0,0E0,0E0,0E0,0E0,0E0,0E0,0E0,0E0,0E0,0E0,0E0,0E0,0E0,0E0,0E0,0E0,0E0,0E0,0E0,0E0],"parents":[2147483647,0,0,1,1,2,2,3,3,4,4,5,5,6,6,7,7,8,8,9,9,10,10,11,11,12,12,13,13,14,14,15,15,18,18,19,19,20,20,21,21,22,22,23,23,26,26,27,27,28,28,29,29,30,30,32,32,33,33,34,34,35,35,36,36,37,37,38,38,42,42,43,43,44,44,47,47,48,48,50,50,52,52,54,54],"right_children":[2,4,6,8,10,12,14,16,18,20,22,24,26,28,30,32,-1,-1,34,36,38,40,42,44,-1,-1,46,48,50,52,54,-1,56,58,60,62,64,66,68,-1,-1,-1,70,72,74,-1,-1,76,78,-1,80,-1,82,-1,84,-1,-1,-1,-1,-1,-1,-1,-1,-1,-1,-1,-1,-1,-1,-1,-1,-1,-1,-1,-1,-1,-1,-1,-1,-1,-1,-1,-1,-1,-1],"split_conditions":[-1.155E-1,-2.35E-2,-4.25E-2,-7.55E-2,6.65E-2,1.7199999E-1,-1.35E-2,1.5E-3,-6.65E-2,6.65E-2,1.65E-2,5.5E-3,-6.35E-2,4.1500002E-2,5.6500003E-2,4E-2,-3.4055722E-1,-3.1325987E-1,6.95E-2,-4.05E-2,-1.364075E2,1.125E-1,1.189374E3,4.75E-2,-3.431768E-1,-2.3189247E-1,9.500001E-3,3.85E-2,-3.1E-2,7.706135E2,-7.35E-2,-3.097107E-1,-9.999999E-4,6E-2,1.2550001E-1,3.25E-2,-1.93E-1,1.05E-2,-1.25E-2,-3.3774346E-1,2.5881383E-1,-2.7834156E-1,-4.05E-2,-9.2999995E-2,-6.85E-2,1.597594E-1,3.402524E-1,5.6E-2,-7.5000003E-3,-3.03507E-1,6.7499995E-2,-3.6639315E-1,-2.55E-2,-3.358148E-1,-5.45E-2,-2.2677484E-1,3.1520045E-1,3.0239218E-1,-2.9601657E-1,-3.060567E-1,2.5192568E-1,-3.5752758E-1,2.1725299E-2,3.4602445E-1,-3.023881E-1,-3.1959832E-1,2.3877871E-1,1.003021E-1,-3.1130514E-1,1.4913936E-1,3.5175008E-1,4.4412073E-2,-3.1002012E-1,-2.3814188E-1,1.3678291E-1,-3.48216E-1,2.3657432E-2,-2.1028066E-1,3.1326202E-1,2.976207E-1,-2.7501768E-1,-1.571353E-1,1.9668947E-1,-1.5964097E-1,2.7845943E-1],"split_indices":[1,106,19,233,227,226,63,224,127,81,2,133,13,11,226,116,0,0,40,26,280,63,268,5,0,0,28,147,66,268,42,0,241,20,13,16,144,46,40,0,0,0,126,246,21,0,0,182,3,0,140,0,80,0,120,0,0,0,0,0,0,0,0,0,0,0,0,0,0,0,0,0,0,0,0,0,0,0,0,0,0,0,0,0,0],"split_type":[0,0,0,0,0,0,0,0,0,0,0,0,0,0,0,0,0,0,0,0,0,0,0,0,0,0,0,0,0,0,0,0,0,0,0,0,0,0,0,0,0,0,0,0,0,0,0,0,0,0,0,0,0,0,0,0,0,0,0,0,0,0,0,0,0,0,0,0,0,0,0,0,0,0,0,0,0,0,0,0,0,0,0,0,0],"sum_hessian":[2.0469722E3,8.5212665E2,1.1948455E3,1.8715508E2,6.6497156E2,2.7043723E2,9.2440826E2,5.080725E1,1.3634782E2,6.076436E2,5.732799E1,2.3836217E2,3.2075066E1,1.2339945E2,8.0100885E2,2.2437187E1,2.8370064E1,6.562698E0,1.2978513E2,4.9572903E2,1.11914536E2,2.142452E1,3.5903473E1,1.9861388E2,3.9748295E1,1.9403197E0,3.0134747E1,6.998509E1,5.3414364E1,1.3440028E2,6.666085E2,6.093484E0,1.6343702E1,1.2128984E2,8.495291E0,9.339062E1,4.0233844E2,3.979215E1,7.212239E1,1.84941E1,2.9304194E0,2.9474492E0,3.295602E1,9.4090454E1,1.0452342E2,3.6541922E0,2.6480555E1,5.972355E1,1.0261541E1,5.102538E0,4.8311825E1,1.3377184E1,1.210231E2,6.8172965E0,6.5979126E2,1.4601315E0,1.4883572E1,1.1837707E2,2.912775E0,5.5934067E0,2.9018843E0,2.7221504E1,6.616911E1,5.8687015E0,3.9646973E2,5.6193576E0,3.417279E1,2.3568043E1,4.8554344E1,3.6507535E0,2.930527E1,3.38407E1,6.0249756E1,1.9199493E1,8.532394E1,4.8730995E1,1.0992551E1,1.4573504E0,8.804192E0,4.4911633E1,3.400193E0,2.1391989E1,9.963111E1,1.0201198E1,6.4959E2],"tree_param":{"num_deleted":"0","num_feature":"283","num_nodes":"85","size_leaf_vector":"0"}},{"base_weights":[1.5914573E-1,7.857881E-1,-4.2248687E-1,-6.4727193E-1,9.421027E-1,4.1273594E-1,-7.692403E-1,1.5223854E0,-9.8775333E-1,3.3689892E-1,1.1479931E0,9.7446406E-1,-3.4840292E-1,-2.7702682E-2,-1.043812E0,7.032388E-1,1.7333735E0,7.9079235E-1,-1.436325E0,-8.738978E-1,6.998301E-1,1.2397658E0,-1.4951219E-2,-5.698269E-1,1.1336782E0,-1.4028553E0,5.2905434E-1,3.9391553E-1,-1.1458609E0,1.7584036E-1,-1.1574539E0,1.5232449E0,-1.403786E0,-1.5687194E0,9.6921843E-1,-1.2282306E0,1.4730247E0,-8.682185E-1,9.60717E-1,1.2731837E0,-1.4299859E0,-1.043049E0,1.2780159E0,-1.7567067E0,1.4504452E0,-1.5265465E0,1.197997E0,-1.7111926E0,1.3087037E0,-1.5895863E0,9.470966E-1,-8.061512E-1,8.713737E-1,-1.6666739E0,4.0341064E-1,1.2079722E0,-1.5454485E0,-1.2677356E0,8.9920536E-2,1.7260054E0,7.297693E-1,1.1481636E0,-1.6319646E0,-1.629175E0,1.1840271E0,-1.58949E0,1.0636398E0,-1.7252439E0,1.297825E0,1.1853327E0,-1.7645948E0,3.6200377E-1,1.4608436E0,1.296592E0,-5.361261E-1,-1.6166763E0,1.138402E0,4.7856972E-1,-1.652288E0,1.089951E0,-7.914776E-1,1.383846E0,-1.3741755E0,-1.2414414E0,1.6374755E0,6.434094E-1,-1.3286796E0,-1.0774201E0,1.3090217E0],"categories":[],"categories_nodes":[],"categories_segments":[],"categories_sizes":[],"default_left":[1,1,1,1,1,1,1,1,1,1,1,1,1,1,1,0,0,1,1,1,1,1,1,1,1,1,1,1,1,1,1,1,0,0,0,1,0,1,1,1,0,1,1,0,0,0,1,0,0,0,1,1,1,0,1,1,0,1,1,0,0,0,0,0,0,0,0,0,0,0,0,0,0,0,0,0,0,0,0,0,0,0,0,0,0,0,0,0,0],"id":2,"left_children":[1,3,5,7,9,11,13,15,17,19,21,23,25,27,29,-1,-1,31,33,35,37,39,41,43,45,47,49,51,53,55,57,59,-1,-1,-1,61,-1,63,65,67,-1,69,71,-1,-1,-1,73,-1,-1,-1,75,77,79,-1,81,83,-1,85,87,-1,-1,-1,-1,-1,-1,-1,-1,-1,-1,-1,-1,-1,-1,-1,-1,-1,-1,-1,-1,-1,-1,-1,-1,-1,-1,-1,-1,-1,-1],"loss_changes":[7.1089056E2,2.109101E2,2.9333105E2,7.014936E1,1.0513959E2,1.2751924E2,1.4560388E2,1.0274658E0,6.569912E1,9.57013E1,6.741547E1,4.279178E1,1.18290436E2,9.205451E1,7.254956E1,0E0,0E0,2.937539E1,2.221582E1,4.3678516E1,6.9168236E1,5.4041077E1,6.404492E1,4.255851E1,2.847403E1,5.0712875E1,6.3564537E1,8.1977745E1,4.380857E1,8.24482E1,6.581482E1,8.615284E-1,0E0,0E0,0E0,4.4366325E1,0E0,3.99601E1,3.9405365E1,4.4989624E1,0E0,4.52323E1,3.0460243E0,0E0,0E0,0E0,2.6787888E1,0E0,0E0,0E0,3.085065E1,4.524215E1,3.7919197E1,0E0,2.6745821E1,3.2453472E1,0E0,5.1972107E1,5.7949726E1,0E0,0E0,0E0,0E0,0E0,0E0,0E0,0E0,0E0,0E0,0E0,0E0,0E0,0E0,0E0,0E0,0E0,0E0,0E0,0E0,0E0,0E0,0E0,0E0,0E0,0E0,0E0,0E0,0E0,0E0],"parents":[2147483647,0,0,1,1,2,2,3,3,4,4,5,5,6,6,7,7,8,8,9,9,10,10,11,11,12,12,13,13,14,14,17,17,18,18,19,19,20,20,21,21,22,22,23,23,24,24,25,25,26,26,27,27,28,28,29,29,30,30,31,31,35,35,37,37,38,38,39,39,41,41,42,42,46,46,50,50,51,51,52,52,54,54,55,55,57,57,58,58],"right_children":[2,4,6,8,10,12,14,16,18,20,22,24,26,28,30,-1,-1,32,34,36,38,40,42,44,46,48,50,52,54,56,58,60,-1,-1,-1,62,-1,64,66,68,-1,70,72,-1,-1,-1,74,-1,-1,-1,76,78,80,-1,82,84,-1,86,88,-1,-1,-1,-1,-1,-1,-1,-1,-1,-1,-1,-1,-1,-1,-1,-1,-1,-1,-1,-1,-1,-1,-1,-1,-1,-1,-1,-1,-1,-1],"split_conditions":[-4.5E-3,-8.15E-2,1.025E-1,-4.1E-2,-3.75E-2,1.05E-2,-4.45E-2,2.055E-1,-1.055E-1,-1.05000004E-1,6.55E-2,7.1961553E3,2.55E-2,3.0499998E-2,-1.9499999E-2,1.4064775E-1,3.466747E-1,-4.05E-2,8.15E-2,1.105E-1,2.4500001E-2,7.55E-2,1.04499996E-1,2.225E-1,-7E-2,9.95E-2,1.55E-2,-3.4500003E-2,2.0294566E4,-1.9499999E-2,1.205E-1,-6.7499995E-2,-2.807572E-1,-3.137439E-1,1.9384369E-1,-5.1E-2,2.9460496E-1,2.5554414E4,-6.8E-2,-1.57E-1,-2.8599718E-1,-2.55E-2,7.35E-2,-3.5134134E-1,2.9008904E-1,-3.053093E-1,7.55E-2,-3.4223852E-1,2.6174074E-1,-3.1791726E-1,-6.1E-2,-3.3E-2,1.13000005E-1,-3.3333477E-1,2.2332266E4,-1.3E-2,-3.0908972E-1,-2.5E-2,-9.8000005E-2,3.452011E-1,1.4595386E-1,2.2963272E-1,-3.2639292E-1,-3.25835E-1,2.3680542E-1,-3.17898E-1,2.1272795E-1,-3.450488E-1,2.59565E-1,2.3706654E-1,-3.5291895E-1,7.2400756E-2,2.921687E-1,2.593184E-1,-1.0722522E-1,-3.2333526E-1,2.276804E-1,9.571394E-2,-3.304576E-1,2.179902E-1,-1.5829553E-1,2.7676922E-1,-2.748351E-1,-2.4828827E-1,3.274951E-1,1.2868188E-1,-2.6573592E-1,-2.1548402E-1,2.6180434E-1],"split_indices":[40,15,9,102,13,27,17,0,220,1,204,264,142,204,232,0,0,193,29,156,216,33,184,226,77,86,63,74,256,222,14,1,0,0,0,137,0,256,35,54,0,224,5,0,0,0,18,0,0,0,77,152,107,0,256,223,0,131,70,0,0,0,0,0,0,0,0,0,0,0,0,0,0,0,0,0,0,0,0,0,0,0,0,0,0,0,0,0,0],"split_type":[0,0,0,0,0,0,0,0,0,0,0,0,0,0,0,0,0,0,0,0,0,0,0,0,0,0,0,0,0,0,0,0,0,0,0,0,0,0,0,0,0,0,0,0,0,0,0,0,0,0,0,0,0,0,0,0,0,0,0,0,0,0,0,0,0,0,0,0,0,0,0,0,0,0,0,0,0,0,0,0,0,0,0,0,0,0,0,0,0],"sum_hessian":[1.9485365E3,9.378066E2,1.01073E3,9.19241E1,8.4588245E2,2.964595E2,7.1427045E2,1.1997958E1,7.992614E1,2.1539044E2,6.3049207E2,1.7041284E2,1.2604665E2,1.9330669E2,5.209638E2,3.344858E0,8.653101E0,1.5944549E1,6.3981594E1,4.934839E1,1.6604205E2,5.843153E2,4.6176743E1,1.5686199E1,1.5472665E2,5.6977386E1,6.906927E1,1.4084622E2,5.2460457E1,4.435713E1,4.7660666E2,1.2183983E1,3.7605653E0,6.0973644E1,3.0079477E0,4.3289333E1,6.0590577E0,2.3352854E1,1.426892E2,5.7760834E2,6.706967E0,2.5830784E1,2.0345957E1,9.963343E0,5.7228556E0,3.1159744E0,1.5161067E2,5.1491142E1,5.4862447E0,1.0920691E1,5.814858E1,3.98918E1,1.0095442E2,3.9205208E1,1.3255252E1,2.7916094E1,1.6441034E1,4.378771E2,3.8729538E1,8.768164E0,3.415819E0,6.0187674E0,3.7270565E1,1.7186417E1,6.1664376E0,4.9750266E0,1.3771417E2,4.145588E0,5.7346277E2,6.160933E0,1.9669851E1,3.8810341E0,1.6464924E1,1.4369319E2,7.9174895E0,3.520322E0,5.4628258E1,1.601303E1,2.387877E1,8.953042E1,1.14240055E1,8.68597E0,4.569282E0,3.882751E0,2.4033342E1,1.3236466E1,4.2464066E2,1.9844149E1,1.8885391E1],"tree_param":{"num_deleted":"0","num_feature":"283","num_nodes":"89","size_leaf_vector":"0"}},{"base_weights":[1.7128682E-1,-4.3967405E-1,6.021971E-1,1.9784163E-1,-7.457858E-1,-4.9804784E-2,9.0141875E-1,4.2157206E-1,-1.1268473E0,1.4116434E0,-8.479634E-1,8.2176304E-1,-3.685151E-1,1.0887678E0,3.013462E-1,6.098986E-1,-9.182904E-1,-1.545165E0,7.128941E-1,1.5878316E0,-1.1125531E0,-1.2163465E-2,-1.0307521E0,1.0973097E0,-9.6766E-1,-7.218907E-1,4.7658896E-1,1.1164311E0,-1.4021192E0,7.809095E-1,-5.577713E-1,7.307192E-1,-1.5085027E0,-1.5518086E0,9.3785363E-1,1.2284287E0,-9.375803E-1,-1.4266574E0,4.270545E-1,1.7218904E0,-1.0771648E0,-1.332362E0,1.2205096E0,-1.5410408E0,1.016356E0,4.8086736E-1,-1.0997196E0,-1.485882E0,7.677674E-1,1.1410444E0,-1.6586046E0,1.1329191E0,-4.2073008E-1,-1.4653969E0,4.2414618E-1,-1.4257681E0,8.356742E-1,1.3226411E0,-7.3885965E-1,-1.4713255E0,8.574674E-1,1.279049E0,-1.1217886E0,-1.2192342E0,1.3172218E0,-1.5812039E0,8.582684E-1,-1.2976884E0,5.466029E-1,1.1687808E0,-4.9197203E-1,1.1739439E0,-4.040609E-1,1.2055072E0,-1.1958522E0,-1.8367819E0,9.166181E-1,-1.6859576E0,9.9086046E-1,-1.6436759E0,1.1293126E0],"categories":[],"categories_nodes":[],"categories_segments":[],"categories_sizes":[],"default_left":[1,1,1,1,1,1,1,1,1,1,1,1,1,1,1,1,1,0,1,0,0,1,1,1,1,1,1,1,0,1,1,1,0,0,1,0,0,0,1,0,1,0,1,0,0,1,1,0,1,1,0,1,1,1,1,0,0,0,0,0,0,0,0,0,0,0,0,0,0,0,0,0,0,0,0,0,0,0,0,0,0],"id":3,"left_children":[1,3,5,7,9,11,13,15,17,19,21,23,25,27,29,31,33,-1,35,-1,-1,37,39,41,43,45,47,49,-1,51,53,55,-1,-1,57,-1,-1,-1,59,-1,61,-1,63,-1,-1,65,67,-1,69,71,-1,73,75,77,79,-1,-1,-1,-1,-1,-1,-1,-1,-1,-1,-1,-1,-1,-1,-1,-1,-1,-1,-1,-1,-1,-1,-1,-1,-1,-1],"loss_changes":[4.9289148E2,1.512897E2,2.1419879E2,7.517101E1,1.1658795E2,9.648222E1,8.426514E1,5.515077E1,2.9336853E1,1.2460381E1,7.643735E1,4.6927574E1,7.6265625E1,4.1051575E1,7.476561E1,4.980497E1,3.327573E1,0E0,7.517181E0,0E0,0E0,5.702803E1,5.4311737E1,2.589534E1,1.629126E1,8.217464E1,4.4318836E1,4.0641113E1,0E0,4.9627426E1,5.8740635E1,4.208806E1,0E0,0E0,5.8219414E0,0E0,0E0,0E0,5.8510445E1,0E0,4.395511E1,0E0,1.9936249E1,0E0,0E0,3.532145E1,4.536708E1,0E0,3.4147747E1,2.9088867E1,0E0,1.667936E1,5.2921623E1,2.0151497E1,4.8663467E1,0E0,0E0,0E0,0E0,0E0,0E0,0E0,0E0,0E0,0E0,0E0,0E0,0E0,0E0,0E0,0E0,0E0,0E0,0E0,0E0,0E0,0E0,0E0,0E0,0E0,0E0],"parents":[2147483647,0,0,1,1,2,2,3,3,4,4,5,5,6,6,7,7,8,8,9,9,10,10,11,11,12,12,13,13,14,14,15,15,16,16,18,18,21,21,22,22,23,23,24,24,25,25,26,26,27,27,29,29,30,30,31,31,34,34,38,38,40,40,42,42,45,45,46,46,48,48,49,49,51,51,52,52,53,53,54,54],"right_children":[2,4,6,8,10,12,14,16,18,20,22,24,26,28,30,32,34,-1,36,-1,-1,38,40,42,44,46,48,50,-1,52,54,56,-1,-1,58,-1,-1,-1,60,-1,62,-1,64,-1,-1,66,68,-1,70,72,-1,74,76,78,80,-1,-1,-1,-1,-1,-1,-1,-1,-1,-1,-1,-1,-1,-1,-1,-1,-1,-1,-1,-1,-1,-1,-1,-1,-1,-1],"split_conditions":[-4.95E-2,-3.15E-2,-8.5E-3,3.85E-2,-1.575E-1,-2.85E-2,6.5E-3,1.735E-1,1.135E-1,9.9687004E1,-6.1499998E-2,1.2900001E-1,5.7499997E-2,4.35E-2,-1.65E-2,3.5499997E-2,6.2E-2,-3.09033E-1,-6.9999998E-3,3.1756634E-1,-2.2251062E-1,-3.65E-2,-1.47E-1,-2.1384E1,9.2E-2,3.25E-2,-7.3E-2,1.19E-1,-2.8042385E-1,5.2500002E-2,-2.05E-2,-3.65E-2,-3.0170056E-1,-3.103617E-1,-1.5000001E-2,2.4568574E-1,-1.8751606E-1,-2.853315E-1,4.5500003E-2,3.4437808E-1,-8.5E-2,-2.6647243E-1,-1.125E-1,-3.0820817E-1,2.032712E-1,-3.5E-3,2.7085767E3,-2.9717642E-1,3.4500003E-2,7.7E-2,-3.3172092E-1,3.8999997E-2,-3.9999997E-3,9.4E-2,7.35E-2,-2.8515363E-1,1.6713485E-1,2.6452824E-1,-1.4777194E-1,-2.9426512E-1,1.7149349E-1,2.558098E-1,-2.2435772E-1,-2.4384685E-1,2.6344436E-1,-3.162408E-1,1.7165367E-1,-2.5953767E-1,1.0932058E-1,2.3375617E-1,-9.839441E-2,2.3478878E-1,-8.081218E-2,2.4110143E-1,-2.3917043E-1,-3.673564E-1,1.8332362E-1,-3.3719152E-1,1.9817209E-1,-3.287352E-1,2.2586253E-1],"split_indices":[15,193,2,109,17,106,151,186,171,259,6,59,248,92,152,138,196,0,62,0,0,117,62,276,19,45,58,225,0,244,54,190,0,0,6,0,0,0,165,0,244,0,71,0,0,38,280,0,149,148,0,126,6,93,90,0,0,0,0,0,0,0,0,0,0,0,0,0,0,0,0,0,0,0,0,0,0,0,0,0,0],"split_type":[0,0,0,0,0,0,0,0,0,0,0,0,0,0,0,0,0,0,0,0,0,0,0,0,0,0,0,0,0,0,0,0,0,0,0,0,0,0,0,0,0,0,0,0,0,0,0,0,0,0,0,0,0,0,0,0,0,0,0,0,0,0,0,0,0,0,0,0,0,0,0,0,0,0,0,0,0,0,0,0,0],"sum_hessian":[1.8701893E3,7.734882E2,1.096701E3,2.510335E2,5.224547E2,3.45246E2,7.514551E2,2.1534502E2,3.5688465E1,2.3045488E1,4.9940924E2,9.202085E1,2.5322514E2,5.720429E2,1.794122E2,1.8928462E2,2.6060406E1,2.920744E1,6.4810266E0,2.1888624E1,1.1568636E0,8.981183E1,4.095974E2,8.007688E1,1.1943965E1,1.786637E2,7.456145E1,5.663054E2,5.7374935E0,1.1519877E2,6.421343E1,1.796912E2,9.593419E0,1.9551327E1,6.5090785E0,5.1333184E0,1.3477081E0,2.0747307E1,6.906452E1,6.19318E0,4.0340424E2,3.3908103E0,7.668607E1,9.439283E0,2.5046816E0,4.26432E1,1.3602051E2,9.10345E0,6.5458E1,5.6191034E2,4.395067E0,8.914246E1,2.6056307E1,3.3113197E1,3.1100235E1,7.755528E0,1.7193567E2,5.465887E0,1.0431914E0,1.2317691E1,5.674683E1,6.983807E0,3.964204E2,2.4813952E0,7.420468E1,6.103691E0,3.653951E1,1.2160892E2,1.4411584E1,4.9706963E1,1.5751035E1,5.5043036E2,1.1479954E1,8.6915634E1,2.2268252E0,1.2474366E1,1.358194E1,3.0672552E1,2.4406466E0,7.570292E0,2.3529943E1],"tree_param":{"num_deleted":"0","num_feature":"283","num_nodes":"81","size_leaf_vector":"0"}},{"base_weights":[1.4151497E-1,4.8378262E-1,-4.813507E-1,1.0765005E-1,8.747865E-1,8.733907E-1,-6.269897E-1,8.0678475E-1,-1.8970293E-1,-1.6048038E-2,9.9982435E-1,-1.3628793E0,1.0635908E0,-9.003789E-1,5.186309E-3,-1.1548237E0,9.750534E-1,7.6630104E-1,-4.4389263E-1,6.1232585E-1,-1.4644799E0,-1.7530705E0,1.0298859E0,1.2398711E0,-1.1816012E0,1.0546118E-1,-1.0572125E0,3.820197E-1,-1.3790638E0,9.412595E-1,-1.6547248E0,1.0701059E0,-1.418313E0,-1.6546007E0,9.5482594E-1,4.5233065E-1,-6.7671543E-1,-1.4648455E0,9.420832E-1,1.0608858E0,-1.379724E0,1.3643728E0,-1.2071699E0,-1.0448977E0,1.0757498E0,-1.1840311E0,1.6939127E-1,5.887351E-1,-1.3703065E0,-1.427357E0,1.1338183E0,1.2190461E0,-9.1388386E-1,-1.4162769E0,7.7259785E-1,-3.390824E-1,-1.4031842E0,1.1402901E0,-1.4266521E0,1.1349391E0,1.3065636E-1,1.4336073E0,-8.7778986E-1,-1.4125493E0,1.270532E0,1.3972362E0,-1.0796746E0,1.5246105E0,-1.2206047E0,1.1491225E0,-1.3950858E0,-1.0857408E0,7.7921903E-1],"categories":[],"categories_nodes":[],"categories_segments":[],"categories_sizes":[],"default_left":[1,1,1,1,1,1,1,1,1,1,1,0,1,1,1,1,1,1,1,1,0,0,1,1,0,1,1,1,0,0,0,1,0,0,1,1,1,0,1,1,0,1,0,1,1,1,1,1,0,0,0,0,0,0,0,0,0,0,0,0,0,0,0,0,0,0,0,0,0,0,0,0,0],"id":4,"left_children":[1,3,5,7,9,11,13,15,17,19,21,-1,23,25,27,29,31,33,35,37,-1,-1,39,41,-1,43,45,47,-1,-1,-1,49,-1,-1,51,53,55,-1,57,59,-1,61,-1,63,65,67,69,71,-1,-1,-1,-1,-1,-1,-1,-1,-1,-1,-1,-1,-1,-1,-1,-1,-1,-1,-1,-1,-1,-1,-1,-1,-1],"loss_changes":[3.6700552E2,1.6327151E2,1.2102513E2,1.18091194E2,6.0666473E1,2.683789E1,9.539502E1,5.706636E1,9.7259445E1,6.2790268E1,4.1321045E1,0E0,2.3459736E1,6.089392E1,8.796368E1,1.6067009E1,3.7150208E1,3.998054E1,6.617966E1,3.4349148E1,0E0,0E0,3.6793243E1,1.7493927E1,0E0,6.0152027E1,5.2067047E1,4.8816174E1,0E0,0E0,0E0,2.567984E1,0E0,0E0,3.996904E1,4.0412445E1,6.1088585E1,0E0,2.141481E1,3.205774E1,0E0,9.014877E0,0E0,2.282447E1,2.1728504E1,3.1809021E1,5.083187E1,3.888267E1,0E0,0E0,0E0,0E0,0E0,0E0,0E0,0E0,0E0,0E0,0E0,0E0,0E0,0E0,0E0,0E0,0E0,0E0,0E0,0E0,0E0,0E0,0E0,0E0,0E0],"parents":[2147483647,0,0,1,1,2,2,3,3,4,4,5,5,6,6,7,7,8,8,9,9,10,10,12,12,13,13,14,14,15,15,16,16,17,17,18,18,19,19,22,22,23,23,25,25,26,26,27,27,31,31,34,34,35,35,36,36,38,38,39,39,41,41,43,43,44,44,45,45,46,46,47,47],"right_children":[2,4,6,8,10,12,14,16,18,20,22,-1,24,26,28,30,32,34,36,38,-1,-1,40,42,-1,44,46,48,-1,-1,-1,50,-1,-1,52,54,56,-1,58,60,-1,62,-1,64,66,68,70,72,-1,-1,-1,-1,-1,-1,-1,-1,-1,-1,-1,-1,-1,-1,-1,-1,-1,-1,-1,-1,-1,-1,-1,-1,-1],"split_conditions":[1.555E-1,3.85E-2,-6.95E-2,-4.05E-2,-3.15E-2,1E-2,7.25E-2,1.25E-2,-3.0499998E-2,1.65E-2,-5.85E-2,-2.7257586E-1,-7.9499996E-1,-8.6500004E-2,3.0499998E-2,-9E-2,4.8E-2,-8.996E0,-4.1500002E-2,5.45E-2,-2.92896E-1,-3.506141E-1,2.32E-1,3.45E-2,-2.3632024E-1,-7.5000003E-3,2.165E-1,1.0893109E4,-2.7581277E-1,1.882519E-1,-3.30945E-1,-6.6E-2,-2.8366262E-1,-3.3092016E-1,6.2E-2,-5.45E-2,1.185E-1,-2.929691E-1,6.9999998E-3,4.2999998E-2,-2.759448E-1,1.45E-2,-2.4143398E-1,9.25E-2,1.18E-1,-2.1599999E-1,-9E-3,-3.25E-2,-2.740613E-1,-2.854714E-1,2.2676365E-1,2.4380922E-1,-1.8277678E-1,-2.832554E-1,1.5451957E-1,-6.781648E-2,-2.8063685E-1,2.2805803E-1,-2.853304E-1,2.2698782E-1,2.6131272E-2,2.8672147E-1,-1.7555797E-1,-2.8250986E-1,2.541064E-1,2.7944726E-1,-2.1593492E-1,3.049221E-1,-2.4412094E-1,2.298245E-1,-2.7901718E-1,-2.1714817E-1,1.5584381E-1],"split_indices":[9,63,40,40,227,100,28,28,27,40,142,0,7,6,193,34,95,274,114,37,0,0,186,25,0,127,219,278,0,0,0,75,0,0,22,170,134,0,95,135,0,30,0,15,186,174,145,185,0,0,0,0,0,0,0,0,0,0,0,0,0,0,0,0,0,0,0,0,0,0,0,0,0],"split_type":[0,0,0,0,0,0,0,0,0,0,0,0,0,0,0,0,0,0,0,0,0,0,0,0,0,0,0,0,0,0,0,0,0,0,0,0,0,0,0,0,0,0,0,0,0,0,0,0,0,0,0,0,0,0,0,0,0,0,0,0,0,0,0,0,0,0,0,0,0,0,0,0,0],"sum_hessian":[1.7194288E3,1.1098076E3,6.096212E2,5.663109E2,5.434967E2,5.8689705E1,5.509315E2,1.6847655E2,3.9783435E2,6.700315E1,4.7649353E2,4.117136E0,5.4572567E1,3.8430972E2,1.6662181E2,1.2847113E1,1.5562943E2,8.313817E1,3.1469617E2,4.7132767E1,1.9870382E1,4.5279636E0,4.7196558E2,5.1014915E1,3.5576522E0,5.188392E1,3.324258E2,1.3153748E2,3.5084328E1,2.3039155E0,1.0543197E1,1.5021648E2,5.412955E0,5.444698E0,7.7693474E1,6.46997E1,2.4999648E2,5.985756E0,4.114701E1,4.665234E2,5.442159E0,4.8966038E1,2.0488758E0,2.3703972E1,2.8179949E1,3.0130823E2,3.1117565E1,1.18251785E2,1.3285696E1,3.2043912E0,1.4701208E2,6.837365E1,9.31982E0,8.965878E0,5.573382E1,1.7167548E2,7.832101E1,3.84484E1,2.6986115E0,4.3191934E2,3.4604076E1,4.7849148E1,1.1168925E0,2.0792423E1,2.9115484E0,2.4828482E1,3.351466E0,3.4721813E0,2.9783606E2,1.9297977E1,1.181959E1,1.15980015E1,1.06653786E2],"tree_param":{"num_deleted":"0","num_feature":"283","num_nodes":"73","size_leaf_vector":"0"}},{"base_weights":[9.8553084E-2,5.321722E-1,-3.486032E-1,8.22241E-1,7.4805036E-2,-5.693682E-1,3.0614692E-1,-4.5585364E-1,8.9592344E-1,5.001324E-1,-6.618243E-1,4.1690692E-2,-8.089311E-1,-5.620782E-1,7.1277654E-1,-1.6908561E0,5.817236E-1,-1.4685497E0,9.2589206E-1,-1.3125657E0,6.375781E-1,-1.0178916E0,7.653815E-1,-1.404856E0,2.2860764E-1,2.617362E-1,-1.0248648E0,5.9926164E-1,-1.3143977E0,-7.928744E-1,8.7520874E-1,-1.2147062E0,1.2291996E0,1.0733207E0,5.5592686E-1,7.100266E-1,-1.556604E0,-1.5080935E0,-1.7227764E-1,1.0941505E0,-1.2552447E0,-1.2703354E0,4.0802437E-1,8.762037E-1,-8.7669355E-1,-1.096006E0,7.193223E-1,-1.2672745E0,1.1844791E0,-1.2730522E0,8.963419E-1,9.648447E-1,-1.3027364E0,1.1115296E0,-8.872167E-1,-4.3896794E-1,8.5708284E-1,-3.5727164E-1,8.4924126E-1,-9.5824516E-1,1.2305071E0,2.3844685E-1,1.2238691E0,-1.2656878E0,5.656623E-1,1.1270509E0,-1.2098587E0,-1.4253397E0,5.5831164E-1,-1.1636431E0,2.0122811E-1,-1.1025715E0,1.3412743E0,-9.056698E-1,1.4455966E0,-1.230455E0,1.0371296E0],"categories":[],"categories_nodes":[],"categories_segments":[],"categories_sizes":[],"default_left":[1,1,1,1,1,1,1,1,1,1,1,1,1,1,1,0,1,0,1,0,1,1,1,0,1,1,1,1,0,1,1,0,0,1,1,1,0,0,1,1,0,0,1,1,1,1,1,0,1,0,0,1,0,0,0,0,0,0,0,0,0,0,0,0,0,0,0,0,0,0,0,0,0,0,0,0,0],"id":5,"left_children":[1,3,5,7,9,11,13,15,17,19,21,23,25,27,29,-1,31,-1,33,-1,35,37,39,-1,41,43,45,47,-1,49,51,-1,-1,53,55,57,-1,-1,59,61,-1,-1,63,65,67,69,71,-1,73,-1,-1,75,-1,-1,-1,-1,-1,-1,-1,-1,-1,-1,-1,-1,-1,-1,-1,-1,-1,-1,-1,-1,-1,-1,-1,-1,-1],"loss_changes":[3.04487E2,1.0569624E2,1.11944214E2,4.633612E1,9.760283E1,8.4736206E1,6.946645E1,3.5896854E1,3.4058044E1,5.0016525E1,5.874979E1,4.463963E1,9.6377686E1,5.5793137E1,3.338542E1,0E0,1.9580566E1,0E0,2.4290771E1,0E0,3.0379074E1,3.776287E1,1.6884087E1,0E0,3.978647E1,5.0131348E1,4.3739258E1,2.92869E1,0E0,1.2124633E1,2.4904251E1,0E0,0E0,2.5346558E1,3.995312E1,2.689293E1,0E0,0E0,3.9536312E1,1.9964733E0,0E0,0E0,3.532163E1,2.5607227E1,2.0664724E1,2.944983E1,1.7534021E1,0E0,1.2160551E1,0E0,0E0,1.9829262E1,0E0,0E0,0E0,0E0,0E0,0E0,0E0,0E0,0E0,0E0,0E0,0E0,0E0,0E0,0E0,0E0,0E0,0E0,0E0,0E0,0E0,0E0,0E0,0E0,0E0],"parents":[2147483647,0,0,1,1,2,2,3,3,4,4,5,5,6,6,7,7,8,8,9,9,10,10,11,11,12,12,13,13,14,14,16,16,18,18,20,20,21,21,22,22,24,24,25,25,26,26,27,27,29,29,30,30,33,33,34,34,35,35,38,38,39,39,42,42,43,43,44,44,45,45,46,46,48,48,51,51],"right_children":[2,4,6,8,10,12,14,16,18,20,22,24,26,28,30,-1,32,-1,34,-1,36,38,40,-1,42,44,46,48,-1,50,52,-1,-1,54,56,58,-1,-1,60,62,-1,-1,64,66,68,70,72,-1,74,-1,-1,76,-1,-1,-1,-1,-1,-1,-1,-1,-1,-1,-1,-1,-1,-1,-1,-1,-1,-1,-1,-1,-1,-1,-1,-1,-1],"split_conditions":[1.245E-1,-5.5E-3,1.3667917E4,3.467575E2,-5.5E-3,-2.55E-2,-7.45E-2,-1.5E-3,-8.2499996E-2,-1.01500005E-1,7.85E-2,5.5E-3,-6.5E-3,4.95E-2,-1.285E-1,-3.381712E-1,-8.5E-3,-2.9370996E-1,1.85E-2,-2.6251313E-1,7.0999995E-2,4.5E-2,-2.52E0,-2.809712E-1,-1.45E-2,6.0999997E-2,6.65E-2,1.75E-2,-2.6287955E-1,9.55E-2,1.3E-2,-2.4294125E-1,2.4583994E-1,2.5E-3,4.35E-2,-5.7499997E-2,-3.113208E-1,-3.016187E-1,5.75E-2,-2E-2,-2.5104895E-1,-2.540671E-1,-5.2500002E-2,-1E-3,3.0000001E-2,6.75E-2,4.7E-2,-2.534549E-1,-5.9E-2,-2.5461045E-1,1.7926839E-1,-1.18E-1,-2.6054728E-1,2.2230592E-1,-1.7744334E-1,-8.779359E-2,1.7141657E-1,-7.145433E-2,1.6984825E-1,-1.9164903E-1,2.4610142E-1,4.768937E-2,2.4477382E-1,-2.5313756E-1,1.1313247E-1,2.2541018E-1,-2.4197173E-1,-2.8506795E-1,1.1166233E-1,-2.3272863E-1,4.0245622E-2,-2.205143E-1,2.6825485E-1,-1.8113397E-1,2.8911933E-1,-2.4609101E-1,2.0742594E-1],"split_indices":[0,40,272,263,27,201,15,200,19,233,63,119,43,102,158,0,19,0,204,0,240,74,7,0,90,10,56,143,0,145,209,0,0,39,11,169,0,0,84,13,0,0,44,139,138,73,171,0,169,0,0,47,0,0,0,0,0,0,0,0,0,0,0,0,0,0,0,0,0,0,0,0,0,0,0,0,0],"split_type":[0,0,0,0,0,0,0,0,0,0,0,0,0,0,0,0,0,0,0,0,0,0,0,0,0,0,0,0,0,0,0,0,0,0,0,0,0,0,0,0,0,0,0,0,0,0,0,0,0,0,0,0,0,0,0,0,0,0,0,0,0,0,0,0,0,0,0,0,0,0,0,0,0,0,0,0,0],"sum_hessian":[1.5684097E3,7.961612E2,7.722485E2,4.866947E2,3.0946652E2,5.776201E2,1.9462836E2,2.624595E1,4.6044876E2,1.9639166E2,1.1307486E2,1.6290932E2,4.147108E2,6.1957027E1,1.3267133E2,1.1695485E1,1.4550465E1,5.162144E0,4.552866E2,1.3239061E1,1.831526E2,9.0726654E1,2.2348202E1,1.7896069E1,1.4501324E2,6.956641E1,3.4514438E2,2.4437233E1,3.7519794E1,1.2541135E1,1.20130196E2,3.622827E0,1.0927638E1,3.2419568E2,1.3109093E2,1.7795326E2,5.1993356E0,5.6936924E1,3.3789734E1,1.9615192E1,2.7330098E0,1.485193E1,1.3016132E2,4.532992E1,2.4236486E1,3.319755E2,1.3168866E1,5.554815E0,1.8882418E1,9.95709E0,2.5840445E0,1.15916504E2,4.2136917E0,3.1842297E2,5.7726927E0,3.035452E1,1.0073641E2,2.0352575E1,1.576007E2,2.1859148E1,1.1930584E1,2.9557078E0,1.6659485E1,1.0598909E1,1.1956241E2,4.087452E1,4.4554014E0,1.7537935E1,6.69855E0,3.156221E2,1.6353403E1,3.1547744E0,1.00140915E1,1.822838E0,1.705958E1,3.184376E0,1.1273213E2],"tree_param":{"num_deleted":"0","num_feature":"283","num_nodes":"77","size_leaf_vector":"0"}},{"base_weights":[1.22497216E-1,3.9931527E-1,-4.168377E-1,1.3104333E-1,7.687714E-1,-5.93255E-1,6.5415597E-1,3.901866E-1,-3.8437694E-1,9.7055817E-1,1.8803436E-1,-8.262727E-1,2.315978E-2,-1.2819943E0,8.67494E-1,-3.1624368E-1,6.2356764E-1,3.2315406E-1,-7.62969E-1,-1.3729992E0,1.0068754E0,-1.2435303E0,5.499695E-1,-9.192769E-1,5.513599E-1,3.159589E-1,-1.334249E0,1.0167705E0,-1.2752175E0,-1.1865919E0,2.7935117E-1,7.5208265E-1,-5.811327E-1,7.5422007E-1,-1.149159E0,7.2268337E-1,-1.0194955E0,-3.1238312E-1,1.0603437E0,-1.5273919E0,9.0834945E-1,-7.8244597E-1,7.9299355E-1,-1.2875161E-2,-1.037454E0,1.2923177E0,-1.092341E0,-1.0007427E0,6.451879E-1,-1.184799E0,1.1260313E0,4.6534112E-1,-1.5868181E0,-1.2449244E0,6.524439E-1,8.6709696E-1,-2.991566E-1,7.128088E-1,-1.4381377E0,1.1248524E0,-9.193286E-1,-1.4557862E0,7.8669125E-1,1.3015182E0,-1.2126828E0,-1.3503802E0,7.299549E-1,9.3398505E-1,-1.885366E0,1.0827637E0,-1.6100136E0,-1.5357345E0,9.8543715E-1,9.3452144E-1,-1.3411644E0,-1.2128972E0,8.179336E-1,1.8132903E-1,-1.1389595E0,-8.2789236E-1,1.683647E0,5.4931146E-1,-1.4952538E0,8.871001E-1,-7.8629917E-1,1.2018632E0,-1.0356305E0],"categories":[],"categories_nodes":[],"categories_segments":[],"categories_sizes":[],"default_left":[1,1,1,1,1,1,1,1,1,1,1,1,1,0,1,1,1,1,1,0,1,1,1,1,1,1,0,1,0,1,1,1,1,1,1,1,1,1,1,0,0,1,1,1,1,1,0,1,1,0,1,0,0,0,0,0,0,0,0,0,0,0,0,0,0,0,0,0,0,0,0,0,0,0,0,0,0,0,0,0,0,0,0,0,0,0,0],"id":6,"left_children":[1,3,5,7,9,11,13,15,17,19,21,23,25,-1,27,29,31,33,35,-1,37,39,41,43,45,47,-1,49,-1,51,53,55,57,59,61,63,65,67,69,-1,-1,71,73,75,77,79,-1,81,83,-1,85,-1,-1,-1,-1,-1,-1,-1,-1,-1,-1,-1,-1,-1,-1,-1,-1,-1,-1,-1,-1,-1,-1,-1,-1,-1,-1,-1,-1,-1,-1,-1,-1,-1,-1,-1,-1],"loss_changes":[2.227042E2,9.75782E1,9.600213E1,7.657008E1,4.8375336E1,6.2501434E1,3.0870481E1,6.3048058E1,5.1656548E1,2.7535248E1,5.6690098E1,4.095627E1,4.8236244E1,0E0,2.224419E1,4.974871E1,4.4853897E1,4.377128E1,4.849836E1,0E0,2.1716034E1,1.4899143E1,2.878283E1,3.1704865E1,2.6488823E1,4.389428E1,0E0,1.6195389E1,0E0,2.6471851E1,3.3460323E1,3.1655563E1,3.2317307E1,3.3843742E1,1.04683E1,2.2906082E1,6.308898E1,2.6425812E1,1.9200134E1,0E0,0E0,2.0050312E1,2.3620415E1,3.605284E1,3.261255E1,1.3549456E1,0E0,1.6418478E1,2.8546146E1,0E0,1.0977303E1,0E0,0E0,0E0,0E0,0E0,0E0,0E0,0E0,0E0,0E0,0E0,0E0,0E0,0E0,0E0,0E0,0E0,0E0,0E0,0E0,0E0,0E0,0E0,0E0,0E0,0E0,0E0,0E0,0E0,0E0,0E0,0E0,0E0,0E0,0E0,0E0],"parents":[2147483647,0,0,1,1,2,2,3,3,4,4,5,5,6,6,7,7,8,8,9,9,10,10,11,11,12,12,14,14,15,15,16,16,17,17,18,18,20,20,21,21,22,22,23,23,24,24,25,25,27,27,29,29,30,30,31,31,32,32,33,33,34,34,35,35,36,36,37,37,38,38,41,41,42,42,43,43,44,44,45,45,47,47,48,48,50,50],"right_children":[2,4,6,8,10,12,14,16,18,20,22,24,26,-1,28,30,32,34,36,-1,38,40,42,44,46,48,-1,50,-1,52,54,56,58,60,62,64,66,68,70,-1,-1,72,74,76,78,80,-1,82,84,-1,86,-1,-1,-1,-1,-1,-1,-1,-1,-1,-1,-1,-1,-1,-1,-1,-1,-1,-1,-1,-1,-1,-1,-1,-1,-1,-1,-1,-1,-1,-1,-1,-1,-1,-1,-1,-1],"split_conditions":[1.5650001E-1,3.15E-2,1.275E-1,7.35E-2,6.5E-3,2.4500001E-2,1E-2,9.604204E3,-2.6500002E-2,-6.05E-2,-7E-3,1.105E-1,5.6500003E-2,-2.563989E-1,5.9E-2,-2.35E-2,7.45E-2,1.55E-2,-4.35E-2,-2.7459985E-1,1.4E-2,1.555E-1,-7.5000003E-3,-2.75E-2,7.5000003E-3,4.553015E2,-2.6684982E-1,-6.0000002E-2,-2.550435E-1,-5.6500003E-2,-1.115E-1,3.85E-2,-1.5000001E-2,1.415E-1,8.5E-2,4.4914854E3,5.85E-2,-5.2E-2,8.45E-2,-3.054784E-1,1.8166989E-1,7.4E-2,6.8E-2,-1.5E-3,-1.01500005E-1,8.4E-2,-2.1846819E-1,9.500001E-3,6.2E-2,-2.369598E-1,2.7E-2,9.306823E-2,-3.1736362E-1,-2.4898489E-1,1.3048878E-1,1.734194E-1,-5.983132E-2,1.4256176E-1,-2.8762755E-1,2.2497049E-1,-1.8386571E-1,-2.9115725E-1,1.5733825E-1,2.6030365E-1,-2.4253657E-1,-2.7007604E-1,1.4599098E-1,1.8679701E-1,-3.770732E-1,2.1655273E-1,-3.2200274E-1,-3.071469E-1,1.9708744E-1,1.869043E-1,-2.6823288E-1,-2.4257945E-1,1.6358672E-1,3.6265805E-2,-2.277919E-1,-1.6557847E-1,3.367294E-1,1.0986229E-1,-2.9905078E-1,1.7742002E-1,-1.5725984E-1,2.4037264E-1,-2.071261E-1],"split_indices":[9,2,5,107,151,78,120,265,140,120,210,224,148,0,253,65,43,20,60,0,100,181,253,178,44,259,0,128,0,40,1,151,106,219,70,278,141,246,86,0,0,80,106,176,108,181,0,49,136,0,152,0,0,0,0,0,0,0,0,0,0,0,0,0,0,0,0,0,0,0,0,0,0,0,0,0,0,0,0,0,0,0,0,0,0,0,0],"split_type":[0,0,0,0,0,0,0,0,0,0,0,0,0,0,0,0,0,0,0,0,0,0,0,0,0,0,0,0,0,0,0,0,0,0,0,0,0,0,0,0,0,0,0,0,0,0,0,0,0,0,0,0,0,0,0,0,0,0,0,0,0,0,0,0,0,0,0,0,0,0,0,0,0,0,0,0,0,0,0,0,0,0,0,0,0,0,0],"sum_hessian":[1.4895643E3,9.845141E2,5.050503E2,5.7114514E2,4.1336896E2,4.3400565E2,7.104464E1,3.802206E2,1.9092455E2,3.0627676E2,1.0709219E2,3.1470145E2,1.1930421E2,6.5540566E0,6.4490585E1,9.433108E1,2.8588953E2,6.660199E1,1.2432256E2,4.1121693E0,3.021646E2,2.1120068E1,8.597212E1,2.9511115E2,1.9590279E1,9.876697E1,2.0537241E1,6.078158E1,3.7090008E0,3.792242E1,5.6408657E1,2.5867075E2,2.7218763E1,5.1895638E1,1.4706352E1,1.8038263E1,1.06284294E2,1.1580826E1,2.9058377E2,1.8915117E1,2.2049508E0,1.2919485E1,7.305264E1,3.4166664E1,2.609445E2,1.3650566E1,5.939713E0,1.9347984E1,7.941898E1,2.4084458E0,5.837314E1,7.3641624E0,3.0558258E1,1.063253E1,4.5776127E1,2.333189E2,2.5351866E1,1.0911853E1,1.6306911E1,4.275481E1,9.140826E0,1.2909543E1,1.7968093E0,1.413749E1,3.9007726E0,8.9571236E1,1.6713062E1,6.687865E0,4.892961E0,2.8875397E2,1.8298105E0,9.151415E0,3.7680705E0,6.903655E1,4.016086E0,1.3789371E1,2.0377296E1,2.0001305E1,2.4094319E2,1.953106E0,1.169746E1,4.65282E0,1.4695164E1,6.826323E1,1.1155754E1,5.682375E1,1.5493871E0],"tree_param":{"num_deleted":"0","num_feature":"283","num_nodes":"87","size_leaf_vector":"0"}},{"base_weights":[1.2370941E-1,4.6401483E-1,-2.0659542E-1,-2.1553096E-1,6.3619375E-1,-4.3231907E-1,3.5591108E-1,1.0294529E-1,-1.1226473E0,-5.996527E-1,7.116321E-1,2.7451287E-3,-7.2250044E-1,5.7875454E-1,-7.7649367E-1,4.3504822E-1,-1.0576543E0,3.8921627E-1,-1.4041883E0,7.283566E-1,-1.3953055E0,-1.8918033E-1,8.0406886E-1,2.3721223E-1,-1.1764112E0,4.9180013E-1,-8.1079215E-1,-1.2379818E0,7.243917E-1,7.441613E-1,-1.2822915E0,5.849547E-1,-1.3382326E0,-1.3429338E0,9.7334695E-1,-9.8367774E-1,1.0150924E0,-9.580441E-1,1.2046783E0,4.224845E-1,-1.2412813E0,9.7080225E-1,4.1125134E-1,5.227635E-1,-6.678665E-1,5.8236146E-1,-1.4341947E0,1.4496775E0,-1.1022476E0,5.797186E-1,-9.0413994E-1,-1.2540845E0,8.1281835E-1,1.1856216E0,-1.0161278E0,7.33069E-1,-1.309836E0,-3.443261E-1,1.0940559E0,8.774155E-1,-1.5825142E0,-1.726246E-1,1.0151201E0,-4.5939413E-1,8.7161714E-1,7.190158E-1,-7.3575985E-1,5.397383E-1,-1.2581432E0,2.8536192E-1,7.35595E-1,-6.9193864E-1,1.7070932E0,1.3245516E0,-1.1394498E0,-1.1455723E0,-4.0858862E-1,8.9495623E-1,-1.1948762E0],"categories":[],"categories_nodes":[],"categories_segments":[],"categories_sizes":[],"default_left":[1,1,1,1,1,1,1,1,1,1,1,1,1,1,1,1,1,1,0,1,0,1,1,1,1,1,1,0,1,1,0,1,0,0,0,0,0,0,0,1,1,1,1,1,1,1,0,1,0,1,1,0,1,0,0,0,0,0,0,0,0,0,0,0,0,0,0,0,0,0,0,0,0,0,0,0,0,0,0],"id":7,"left_children":[1,3,5,7,9,11,13,15,17,19,21,23,25,27,29,31,33,35,-1,37,-1,39,41,43,45,47,49,-1,51,53,-1,55,-1,-1,-1,-1,-1,-1,-1,57,59,61,63,65,67,69,-1,71,-1,73,75,-1,77,-1,-1,-1,-1,-1,-1,-1,-1,-1,-1,-1,-1,-1,-1,-1,-1,-1,-1,-1,-1,-1,-1,-1,-1,-1,-1],"loss_changes":[1.5244269E2,7.828073E1,8.75696E1,3.933594E1,5.0129074E1,6.2086227E1,5.0339813E1,3.954285E1,1.5598377E1,3.3996803E1,4.2027832E1,5.495414E1,3.2027237E1,4.475652E1,2.6286392E1,2.1928522E1,1.4547035E1,6.4413676E0,0E0,1.1075506E1,0E0,3.1164387E1,2.948581E1,4.319706E1,1.5782616E1,3.30803E1,3.6269882E1,0E0,2.79786E1,8.084704E0,0E0,2.1739912E1,0E0,0E0,0E0,0E0,0E0,0E0,0E0,1.6265594E1,1.4227001E1,1.637024E1,5.559222E1,3.1795109E1,2.933512E1,1.4259458E-2,0E0,8.519459E0,0E0,2.4473217E1,3.045401E1,0E0,2.5494026E1,0E0,0E0,0E0,0E0,0E0,0E0,0E0,0E0,0E0,0E0,0E0,0E0,0E0,0E0,0E0,0E0,0E0,0E0,0E0,0E0,0E0,0E0,0E0,0E0,0E0,0E0],"parents":[2147483647,0,0,1,1,2,2,3,3,4,4,5,5,6,6,7,7,8,8,9,9,10,10,11,11,12,12,13,13,14,14,15,15,16,16,17,17,19,19,21,21,22,22,23,23,24,24,25,25,26,26,28,28,29,29,31,31,39,39,40,40,41,41,42,42,43,43,44,44,45,45,47,47,49,49,50,50,52,52],"right_children":[2,4,6,8,10,12,14,16,18,20,22,24,26,28,30,32,34,36,-1,38,-1,40,42,44,46,48,50,-1,52,54,-1,56,-1,-1,-1,-1,-1,-1,-1,58,60,62,64,66,68,70,-1,72,-1,74,76,-1,78,-1,-1,-1,-1,-1,-1,-1,-1,-1,-1,-1,-1,-1,-1,-1,-1,-1,-1,-1,-1,-1,-1,-1,-1,-1,-1],"split_conditions":[1.255E-1,-3.9499998E-2,3.75E-2,4.1500002E-2,-5.95E-2,-8.5E-3,5.7499997E-2,7.7E-2,-9.15E-2,-4.6E-2,-3.75E-2,2.25E-2,-5.55E-2,-3E-2,-1.125E-1,8.55E-2,1.365E-1,-1.5E-3,-2.8083766E-1,3E-2,-2.790611E-1,5.2500002E-2,-5.55E-2,3.9499998E-2,-8.55E-2,2.2634414E3,-6.05E-2,-2.4759637E-1,-7.75E-2,-8.400001E-2,-2.564583E-1,1.9150001E-1,-2.6764652E-1,-2.6858675E-1,1.946694E-1,-1.9673555E-1,2.0301847E-1,-1.9160883E-1,2.4093567E-1,4.2999998E-2,-1.415E-1,-4.95E-2,3.5499997E-2,4.25E-2,-4.75E-2,2.2E-2,-2.8683895E-1,-3.0499998E-2,-2.2044952E-1,2.5000002E-3,2.5E-3,-2.508169E-1,3.4500003E-2,2.3712432E-1,-2.0322557E-1,1.466138E-1,-2.619672E-1,-6.8865225E-2,2.1881118E-1,1.754831E-1,-3.1650284E-1,-3.452492E-2,2.0302403E-1,-9.1878824E-2,1.7432342E-1,1.4380316E-1,-1.4715198E-1,1.0794766E-1,-2.5162864E-1,5.7072382E-2,1.47119E-1,-1.3838772E-1,3.4141865E-1,2.649103E-1,-2.2788997E-1,-2.2911446E-1,-8.171772E-2,1.7899124E-1,-2.3897524E-1],"split_indices":[9,13,227,159,42,33,148,107,30,254,238,174,145,120,196,145,115,3,0,248,0,123,39,48,111,275,205,0,41,54,0,186,0,0,0,0,0,0,0,24,12,227,63,240,225,4,0,120,0,156,176,0,114,0,0,0,0,0,0,0,0,0,0,0,0,0,0,0,0,0,0,0,0,0,0,0,0,0,0],"split_type":[0,0,0,0,0,0,0,0,0,0,0,0,0,0,0,0,0,0,0,0,0,0,0,0,0,0,0,0,0,0,0,0,0,0,0,0,0,0,0,0,0,0,0,0,0,0,0,0,0,0,0,0,0,0,0,0,0,0,0,0,0,0,0,0,0,0,0,0,0,0,0,0,0,0,0,0,0,0,0],"sum_hessian":[1.3543444E3,6.668743E2,6.8747E2,1.3475995E2,5.3211444E2,4.9076596E2,1.9670403E2,1.0039806E2,3.4361885E1,3.0212803E1,5.019016E2,1.9675897E2,2.94007E2,1.6476851E2,3.193552E1,7.8547134E1,2.185093E1,5.3343267E0,2.902756E1,1.135124E1,1.8861563E1,4.6612103E1,4.5528952E2,1.6479036E2,3.19686E1,1.9618477E1,2.7438852E2,1.1671616E1,1.530969E2,7.853405E0,2.4082115E1,7.304252E1,5.50461E0,1.9456766E1,2.3941631E0,1.4913303E0,3.8429966E0,2.277278E0,9.073962E0,2.9854115E1,1.6757988E1,3.185907E2,1.366988E2,1.25589455E2,3.9200912E1,3.9257042E0,2.8042896E1,1.2311161E1,7.307317E0,1.6933681E1,2.5745483E2,5.985859E0,1.4711104E2,6.539768E0,1.3136369E0,6.831547E1,4.727054E0,1.4166205E1,1.5687909E1,2.106644E0,1.4651344E1,1.1779429E1,3.0681128E2,4.7281666E1,8.9417145E1,1.0901803E2,1.6571426E1,1.2898471E1,2.6302443E1,2.3102367E0,1.6154677E0,1.1398618E0,1.1171299E1,1.197502E1,4.958661E0,1.7223184E2,8.5222984E1,1.418615E2,5.249535E0],"tree_param":{"num_deleted":"0","num_feature":"283","num_nodes":"79","size_leaf_vector":"0"}},{"base_weights":[1.465383E-1,3.4680665E-1,-3.345597E-1,-4.5051042E-2,5.65183E-1,3.1068906E-1,-5.806257E-1,4.8853403E-1,-3.6313984E-1,6.185995E-1,-8.039514E-1,5.063659E-1,-1.3140689E0,1.6075547E0,-6.6635334E-1,-5.777213E-1,7.9602087E-1,2.8011397E-1,-6.8467885E-1,3.5997438E-1,8.5818505E-1,5.4789567E-1,-1.3172861E0,7.273669E-1,-5.93737E-1,1.9570024E0,-6.6474473E-1,-8.997454E-1,-2.0256683E-2,-1.3144766E0,2.7206346E-1,9.3127805E-1,-7.8019977E-1,-1.2837316E0,6.6027635E-1,-1.0733746E0,-2.1309927E-2,6.776164E-2,7.85043E-1,8.86949E-1,-1.4006749E0,-7.005806E-1,1.031949E0,8.295319E-1,-1.1879902E0,-1.3663783E0,1.0420465E0,-1.0264734E0,4.9901524E-1,6.9646984E-1,-9.6781254E-1,-1.1259137E0,8.8264376E-1,-5.876077E-1,1.0655617E0,-1.1496062E0,6.4506775E-1,9.437823E-1,-7.520708E-1,-1.2443212E0,3.635985E-1,-1.1279938E0,6.155962E-1,5.7123715E-1,-3.9389655E-1,-9.8846203E-1,9.076774E-1,-1.4214042E0,9.139837E-1,-1.06866E0,9.387546E-1,-1.0938331E0,5.6555605E-1,-1.0924243E0,1.2468265E0,-1.3106178E-1,1.6199389E0,1.0229077E0,-1.1793509E0],"categories":[],"categories_nodes":[],"categories_segments":[],"categories_sizes":[],"default_left":[1,1,1,1,1,1,1,1,1,1,1,1,0,1,1,1,1,1,1,1,1,1,0,1,1,0,0,1,1,0,1,1,1,0,1,1,1,1,1,1,0,0,0,1,0,0,0,1,1,1,1,0,0,0,0,0,0,0,0,0,0,0,0,0,0,0,0,0,0,0,0,0,0,0,0,0,0,0,0],"id":8,"left_children":[1,3,5,7,9,11,13,15,17,19,21,23,-1,25,27,29,31,33,35,37,39,41,-1,43,45,-1,-1,47,49,-1,51,53,55,-1,57,59,61,63,65,67,-1,-1,-1,69,-1,-1,-1,71,73,75,77,-1,-1,-1,-1,-1,-1,-1,-1,-1,-1,-1,-1,-1,-1,-1,-1,-1,-1,-1,-1,-1,-1,-1,-1,-1,-1,-1,-1],"loss_changes":[1.2387045E2,7.7674614E1,6.0202396E1,5.5448864E1,4.3117126E1,3.4052795E1,5.24737E1,4.0475677E1,4.250876E1,3.447966E1,1.6208887E1,2.3394815E1,0E0,9.73666E0,3.985093E1,1.782439E1,2.1012787E1,4.180741E1,3.5225174E1,3.369676E1,2.0131943E1,4.8616724E0,0E0,1.6463753E1,2.208891E1,0E0,0E0,3.4938126E1,4.9019352E1,0E0,1.2759464E1,1.8592934E1,4.9873176E0,0E0,2.3166088E1,2.1620934E1,3.7012413E1,3.7906258E1,2.495182E1,1.9252228E1,0E0,0E0,0E0,1.66941E1,0E0,0E0,0E0,1.9750244E1,2.1363468E1,3.162952E1,1.42924595E1,0E0,0E0,0E0,0E0,0E0,0E0,0E0,0E0,0E0,0E0,0E0,0E0,0E0,0E0,0E0,0E0,0E0,0E0,0E0,0E0,0E0,0E0,0E0,0E0,0E0,0E0,0E0,0E0],"parents":[2147483647,0,0,1,1,2,2,3,3,4,4,5,5,6,6,7,7,8,8,9,9,10,10,11,11,13,13,14,14,15,15,16,16,17,17,18,18,19,19,20,20,21,21,23,23,24,24,27,27,28,28,30,30,31,31,32,32,34,34,35,35,36,36,37,37,38,38,39,39,43,43,47,47,48,48,49,49,50,50],"right_children":[2,4,6,8,10,12,14,16,18,20,22,24,-1,26,28,30,32,34,36,38,40,42,-1,44,46,-1,-1,48,50,-1,52,54,56,-1,58,60,62,64,66,68,-1,-1,-1,70,-1,-1,-1,72,74,76,78,-1,-1,-1,-1,-1,-1,-1,-1,-1,-1,-1,-1,-1,-1,-1,-1,-1,-1,-1,-1,-1,-1,-1,-1,-1,-1,-1,-1],"split_conditions":[4.1500002E-2,-1.35E-2,-3.75E-2,5.7499997E-2,7.15E-2,2.3272944E3,-3.576E0,-3.85E-2,-6.55E-2,2.5E-3,-3.5E-3,3.65E-2,-2.6281378E-1,1.3499999E-2,4.45E-2,2.240493E4,4.5500003E-2,7.65E-2,-1.25E-2,4.1500002E-2,-3.71E-1,5.2E-2,-2.6345724E-1,1.7449999E-1,5.7499997E-2,3.914005E-1,-1.3294895E-1,1.035E-1,-1.5E-3,-2.6289532E-1,-1.5999999E-2,-2.85E-2,4.2E-2,-2.5674632E-1,5.7E-2,1.3816123E4,1.499235E2,-4.45E-2,-3.0499998E-2,8.50942E2,-2.80135E-1,-1.4011613E-1,2.0638981E-1,-2.55E-2,-2.3759805E-1,-2.7327567E-1,2.0840931E-1,6.55E-2,2.1001001E2,9.15E-2,-1.37E-1,-2.2518276E-1,1.7652875E-1,-1.1752154E-1,2.1311234E-1,-2.2992125E-1,1.2901355E-1,1.8875647E-1,-1.5041415E-1,-2.4886425E-1,7.27197E-2,-2.2559877E-1,1.23119235E-1,1.14247434E-1,-7.877931E-2,-1.9769241E-1,1.8153548E-1,-2.8428087E-1,1.8279675E-1,-2.13732E-1,1.8775092E-1,-2.1876661E-1,1.1311121E-1,-2.1848486E-1,2.4936531E-1,-2.6212355E-2,3.2398778E-1,2.0458154E-1,-2.3587017E-1],"split_indices":[26,74,40,45,40,274,278,188,95,19,46,159,0,79,175,265,146,100,207,24,7,168,0,191,128,0,0,41,75,0,80,25,1,0,186,270,282,6,178,265,0,0,0,120,0,0,0,157,271,187,23,0,0,0,0,0,0,0,0,0,0,0,0,0,0,0,0,0,0,0,0,0,0,0,0,0,0,0,0],"split_type":[0,0,0,0,0,0,0,0,0,0,0,0,0,0,0,0,0,0,0,0,0,0,0,0,0,0,0,0,0,0,0,0,0,0,0,0,0,0,0,0,0,0,0,0,0,0,0,0,0,0,0,0,0,0,0,0,0,0,0,0,0,0,0,0,0,0,0,0,0,0,0,0,0,0,0,0,0,0,0],"sum_hessian":[1.283443E3,9.064083E2,3.7703464E2,3.2464832E2,5.8176E2,1.0401577E2,2.730189E2,1.21051674E2,2.0359665E2,5.604426E2,2.1317385E1,9.344957E1,1.0566201E1,9.623708E0,2.6339517E2,2.689847E1,9.4153206E1,6.789612E1,1.3570053E2,2.7071585E2,2.897268E2,5.8484344E0,1.546895E1,7.809898E1,1.5350586E1,8.461245E0,1.1624634E0,1.9320895E2,7.018622E1,1.4114499E1,1.278397E1,8.7089165E1,7.0640435E0,1.2812695E1,5.508342E1,8.5174904E1,5.0525623E1,1.611162E2,1.09599655E2,2.8668356E2,3.0432346E0,1.5090231E0,4.3394113E0,7.4682335E1,3.4166443E0,1.0537858E1,4.812727E0,1.7740242E2,1.58065405E1,4.0111248E1,3.0074968E1,3.6296232E0,9.154346E0,6.7998643E0,8.02893E1,5.7636166E0,1.3004267E0,4.6151096E1,8.932326E0,7.623931E1,8.935594E0,1.8174564E1,3.235106E1,7.695413E1,8.4162056E1,6.631821E0,1.02967834E2,2.7216196E0,2.8396194E2,3.5854924E0,7.109685E1,1.7050134E2,6.9010754E0,4.9057145E0,1.09008255E1,2.1607018E1,1.850423E1,2.52043E0,2.7554537E1],"tree_param":{"num_deleted":"0","num_feature":"283","num_nodes":"79","size_leaf_vector":"0"}},{"base_weights":[1.036913E-1,4.1443986E-1,-2.0495886E-1,-2.7933037E-1,5.4000413E-1,2.6721242E-1,-4.365073E-1,-8.9562494E-1,3.5026488E-1,9.119842E-1,3.5626316E-1,5.038258E-1,-8.532886E-1,6.9964975E-2,-7.26636E-1,-1.2685573E0,5.7752514E-1,6.866806E-1,-9.8226386E-1,9.4409335E-1,-1.8235741E0,-4.5337373E-1,5.1861864E-1,6.896398E-1,-4.9077863E-1,5.757392E-1,-1.1949775E0,-8.86353E-1,3.1621262E-1,-9.754504E-1,-7.885247E-2,5.2846575E-1,-1.3519195E0,-8.4797025E-1,1.1095262E0,-1.1236163E0,9.027437E-1,-1.2907449E0,6.1780065E-1,-1.3322697E0,9.791101E-1,-9.541065E-1,1.2037187E0,-1.4665861E-1,6.5134126E-1,-2.5733474E-1,8.645235E-1,-1.2910271E0,6.126186E-1,-6.8447965E-1,9.7431886E-1,-1.3386633E0,9.383732E-1,4.6478638E-1,-1.4090478E0,-1.0520147E0,6.648509E-1,2.786191E-1,-1.1944158E0,1.0519395E0,-1.1661052E0,-5.078554E-1,1.0192609E0,-1.3869298E0,2.1762685E-1,-6.990289E-1,1.4236007E0,6.9414234E-1,-9.217842E-1,6.8762094E-1,-1.3189802E0,-1.1304919E0,7.412936E-1,-2.519526E-1,1.0056336E0,1.0458779E0,-1.0389404E0,4.6294135E-1,1.1572027E0,-2.768196E-1,8.473157E-1,-1.218628E0,-3.9877713E-1,-8.423463E-1,1.3791906E0,6.759328E-1,-7.7601E-1],"categories":[],"categories_nodes":[],"categories_segments":[],"categories_sizes":[],"default_left":[1,1,1,1,1,1,1,1,1,1,1,1,1,1,1,1,1,1,1,1,0,1,1,1,1,1,0,1,1,1,1,0,0,0,0,0,1,0,0,0,1,1,1,1,1,1,1,0,1,0,0,0,1,1,0,1,1,1,0,0,0,0,0,0,0,0,0,0,0,0,0,0,0,0,0,0,0,0,0,0,0,0,0,0,0,0,0],"id":9,"left_children":[1,3,5,7,9,11,13,15,17,19,21,23,25,27,29,31,33,35,37,39,-1,41,43,45,47,49,-1,51,53,55,57,-1,-1,-1,-1,-1,59,-1,-1,-1,61,63,65,67,69,71,73,-1,75,-1,-1,-1,77,79,-1,81,83,85,-1,-1,-1,-1,-1,-1,-1,-1,-1,-1,-1,-1,-1,-1,-1,-1,-1,-1,-1,-1,-1,-1,-1,-1,-1,-1,-1,-1,-1],"loss_changes":[1.11706375E2,5.0698112E1,6.402383E1,3.507353E1,3.327957E1,5.158634E1,5.7737396E1,2.5757706E1,2.0861794E1,1.5944244E1,4.3711365E1,2.9897068E1,1.7295702E1,3.4165817E1,4.0167114E1,6.206543E0,8.440361E0,1.5307941E1,5.480998E0,1.41141205E1,0E0,4.743194E1,2.4462654E1,2.2609428E1,2.3537544E1,4.3025913E0,0E0,2.579173E1,3.0175064E1,2.3344131E1,2.8398466E1,0E0,0E0,0E0,0E0,0E0,1.1474789E1,0E0,0E0,0E0,1.0001053E1,2.2308903E1,6.5955715E0,3.1085083E1,1.7365982E1,1.9884447E1,1.8266434E1,0E0,9.320805E0,0E0,0E0,0E0,1.3980627E-1,3.052826E1,0E0,1.8305466E1,1.0478758E1,2.3197664E1,0E0,0E0,0E0,0E0,0E0,0E0,0E0,0E0,0E0,0E0,0E0,0E0,0E0,0E0,0E0,0E0,0E0,0E0,0E0,0E0,0E0,0E0,0E0,0E0,0E0,0E0,0E0,0E0,0E0],"parents":[2147483647,0,0,1,1,2,2,3,3,4,4,5,5,6,6,7,7,8,8,9,9,10,10,11,11,12,12,13,13,14,14,15,15,16,16,17,17,18,18,19,19,21,21,22,22,23,23,24,24,25,25,27,27,28,28,29,29,30,30,36,36,40,40,41,41,42,42,43,43,44,44,45,45,46,46,48,48,52,52,53,53,55,55,56,56,57,57],"right_children":[2,4,6,8,10,12,14,16,18,20,22,24,26,28,30,32,34,36,38,40,-1,42,44,46,48,50,-1,52,54,56,58,-1,-1,-1,-1,-1,60,-1,-1,-1,62,64,66,68,70,72,74,-1,76,-1,-1,-1,78,80,-1,82,84,86,-1,-1,-1,-1,-1,-1,-1,-1,-1,-1,-1,-1,-1,-1,-1,-1,-1,-1,-1,-1,-1,-1,-1,-1,-1,-1,-1,-1,-1],"split_conditions":[1.195E-1,-1.5E-3,-2.4500001E-2,-1.55E-2,-4.05E-2,1.79E-1,-2.35E-2,9E-2,4.05E-2,5.75E-2,2.7182185E3,5.45E-2,-1.15E-2,-4.5500003E-2,7.0305596E3,-1.84E-1,1.025E-1,1.6E-2,7.2500005E-2,7.658845E2,-3.6471483E-1,1.51E-1,-2.95E-2,-5.2500002E-2,1.01500005E-1,6.05E-2,-2.389955E-1,1.195E-1,7.5E-2,4.5500003E-2,1.9E-2,1.05693154E-1,-2.7038392E-1,-1.6959405E-1,2.2190523E-1,-2.2472326E-1,1.2900001E-1,-2.58149E-1,1.2356013E-1,-2.6645395E-1,-9.65E-2,7E-2,2.65E-2,-3.5E-3,7E-2,1.065E-1,-6.3999996E-2,-2.582054E-1,2.5E-3,-1.3689594E-1,1.9486378E-1,-2.6773268E-1,1.42E-1,2.05E-2,-2.8180957E-1,-2.5E-3,-1.24E-1,3.4500003E-2,-2.3888317E-1,2.103879E-1,-2.3322104E-1,-1.0157108E-1,2.0385218E-1,-2.7738595E-1,4.352537E-2,-1.3980578E-1,2.8472015E-1,1.3882847E-1,-1.8435685E-1,1.3752419E-1,-2.6379606E-1,-2.2609837E-1,1.4825873E-1,-5.039052E-2,2.0112672E-1,2.0917559E-1,-2.077881E-1,9.258827E-2,2.3144054E-1,-5.536392E-2,1.6946314E-1,-2.4372561E-1,-7.9755425E-2,-1.6846927E-1,2.758381E-1,1.3518657E-1,-1.55202E-1],"split_indices":[0,63,177,21,204,186,193,16,222,240,262,125,187,167,276,133,28,208,19,265,0,74,169,13,52,37,0,222,185,200,72,0,0,0,0,0,102,0,0,0,157,116,206,253,193,216,147,0,84,0,0,0,5,66,0,207,1,125,0,0,0,0,0,0,0,0,0,0,0,0,0,0,0,0,0,0,0,0,0,0,0,0,0,0,0,0,0],"split_type":[0,0,0,0,0,0,0,0,0,0,0,0,0,0,0,0,0,0,0,0,0,0,0,0,0,0,0,0,0,0,0,0,0,0,0,0,0,0,0,0,0,0,0,0,0,0,0,0,0,0,0,0,0,0,0,0,0,0,0,0,0,0,0,0,0,0,0,0,0,0,0,0,0,0,0,0,0,0,0,0,0,0,0,0,0,0,0],"sum_hessian":[1.162783E3,5.7925104E2,5.8353186E2,8.858345E1,4.906676E2,1.9195175E2,3.9158014E2,4.455104E1,4.4032406E1,1.6092157E2,3.2974603E2,1.589393E2,3.3012455E1,1.4289311E2,2.4868703E2,3.5661983E1,8.889059E0,3.55436E1,8.488807E0,1.597019E2,1.219654E0,5.4779305E1,2.7496674E2,1.3417844E2,2.4760866E1,6.2381186E0,2.6774336E1,2.8727736E1,1.14165375E2,1.7930856E2,6.937846E1,1.344275E0,3.4317707E1,2.25442E0,6.6346393E0,3.3420055E0,3.220159E1,7.278819E0,1.2099874E0,1.8581909E0,1.5784372E2,4.239331E1,1.2385993E1,4.5714745E1,2.2925198E2,2.0843243E1,1.1333519E2,1.4253409E1,1.0507457E1,1.326555E0,4.911564E0,2.3234724E1,5.4930115E0,1.05786026E2,8.379345E0,1.7165488E2,7.6536894E0,5.311009E1,1.6268373E1,3.049404E1,1.7075537E0,3.8437488E0,1.5399997E2,3.0823753E1,1.1569556E1,1.0573256E0,1.1328668E1,2.1978508E1,2.3736238E1,2.2574632E2,3.5056744E0,1.1049765E1,9.793478E0,1.2628878E1,1.00706314E2,8.614355E0,1.8931015E0,2.7133927E0,2.7796187E0,3.6091713E1,6.969431E1,1.3608087E2,3.5574E1,2.4034386E0,5.250251E0,3.883771E1,1.4272374E1],"tree_param":{"num_deleted":"0","num_feature":"283","num_nodes":"87","size_leaf_vector":"0"}},{"base_weights":[1.1939367E-1,3.7094918E-1,-1.7124473E-1,-1.9400407E-1,5.5560917E-1,-3.0513441E-2,-1.0465897E0,6.3370526E-1,-5.444252E-1,6.4693534E-1,-4.508989E-1,2.2862947E-1,-4.4146815E-1,-1.1687336E0,1.0142081E0,-1.2735219E0,8.390914E-1,8.9335626E-1,-7.3097414E-1,6.959953E-1,-1.2825862E0,-8.0457395E-1,9.175455E-1,-3.913983E-1,4.7962895E-1,-1.0772341E0,-5.244459E-2,-1.2044457E0,5.621749E-1,9.822885E-1,-9.169655E-1,1.260908E0,-8.3197963E-1,-1.2671642E0,-1.8931685E-1,-7.2489685E-1,7.288803E-1,-1.1572406E0,8.669516E-1,1.4877872E-1,1.080012E0,2.0484349E-1,-1.3842156E0,8.810949E-1,-2.555798E-2,-1.1977338E0,8.897693E-1,-1.779818E0,1.0417671E-1,1.088612E0,-8.963267E-1,-1.2258437E0,3.16638E-1,-1.1880659E0,7.923944E-1,-1.3844886E0,7.4850357E-1,4.5977116E-1,-1.2542621E0,1.1351794E0,2.6326308E-1,-9.107866E-1,6.124856E-1,-1.004941E0,9.9071413E-1,3.9797175E-1,-7.4973196E-1,6.737973E-1,-1.2527162E0,1.0178174E0,-1.7375247E-1],"categories":[],"categories_nodes":[],"categories_segments":[],"categories_sizes":[],"default_left":[1,1,1,1,1,1,1,1,1,1,1,1,1,1,0,0,1,1,1,1,0,1,1,1,1,1,1,0,0,1,0,0,0,0,1,1,1,1,1,0,0,1,0,1,1,1,0,0,1,0,0,0,0,0,0,0,0,0,0,0,0,0,0,0,0,0,0,0,0,0,0],"id":10,"left_children":[1,3,5,7,9,11,13,15,17,19,21,23,25,27,-1,-1,29,31,33,35,-1,37,39,41,43,45,47,-1,-1,49,-1,-1,-1,-1,51,53,55,57,59,-1,-1,61,-1,63,65,67,-1,-1,69,-1,-1,-1,-1,-1,-1,-1,-1,-1,-1,-1,-1,-1,-1,-1,-1,-1,-1,-1,-1,-1,-1],"loss_changes":[8.0101944E1,6.1361E1,6.262157E1,4.2511467E1,4.099086E1,4.687245E1,1.8909332E1,1.8187906E1,2.8192152E1,3.9358E1,1.8849815E1,4.2207047E1,4.2034985E1,4.814842E0,0E0,0E0,1.0973589E1,8.812248E0,2.6315136E1,1.907463E1,0E0,1.884671E1,8.5756636E-1,4.666674E1,3.9093964E1,1.636631E1,2.9033913E1,0E0,0E0,8.469986E0,0E0,0E0,0E0,0E0,2.4858477E1,7.603424E0,1.7145233E1,4.5652924E0,6.476693E-1,0E0,0E0,2.3217701E1,0E0,2.3193947E1,2.6759771E1,7.14711E0,0E0,0E0,2.5242476E1,0E0,0E0,0E0,0E0,0E0,0E0,0E0,0E0,0E0,0E0,0E0,0E0,0E0,0E0,0E0,0E0,0E0,0E0,0E0,0E0,0E0,0E0],"parents":[2147483647,0,0,1,1,2,2,3,3,4,4,5,5,6,6,7,7,8,8,9,9,10,10,11,11,12,12,13,13,16,16,17,17,18,18,19,19,21,21,22,22,23,23,24,24,25,25,26,26,29,29,34,34,35,35,36,36,37,37,38,38,41,41,43,43,44,44,45,45,48,48],"right_children":[2,4,6,8,10,12,14,16,18,20,22,24,26,28,-1,-1,30,32,34,36,-1,38,40,42,44,46,48,-1,-1,50,-1,-1,-1,-1,52,54,56,58,60,-1,-1,62,-1,64,66,68,-1,-1,70,-1,-1,-1,-1,-1,-1,-1,-1,-1,-1,-1,-1,-1,-1,-1,-1,-1,-1,-1,-1,-1,-1],"split_conditions":[8.05E-2,-2.05E-2,1.155E-1,-3.35E-2,6.95E-2,-3.15E-2,1.8E-1,2E-2,-2.6500002E-2,2.155E-1,7.35E-2,-3.35E-2,4.5E-3,1.9833478E5,2.0284162E-1,-2.547044E-1,1.1E-2,-2.1499999E-2,1.0024728E4,7.74261E2,-2.5651726E-1,1.4750001E-1,-6.7499995E-2,3.35E-2,1.005E-1,3.8999997E-2,-6.25E-2,-2.4088915E-1,1.1243498E-1,5.6E-2,-1.833931E-1,2.5218162E-1,-1.6639593E-1,-2.5343284E-1,-6.3999996E-2,2.07E-1,-1.7050001E-1,-7.8999996E-2,-1.055E-1,2.9755745E-2,2.1600239E-1,6.75E-2,-2.7684313E-1,-6.95E-2,2.6500002E-2,-1.455E-1,1.7795387E-1,-3.5596362E-1,-9.05E-2,2.177224E-1,-1.7926535E-1,-2.4516873E-1,6.33276E-2,-2.3761319E-1,1.5847889E-1,-2.7689773E-1,1.4970072E-1,9.195423E-2,-2.5085244E-1,2.2703588E-1,5.2652616E-2,-1.8215732E-1,1.2249712E-1,-2.009882E-1,1.9814283E-1,7.959435E-2,-1.4994639E-1,1.3475947E-1,-2.5054324E-1,2.0356348E-1,-3.4750495E-2],"split_indices":[186,44,107,114,40,211,192,94,14,0,13,203,74,255,0,0,152,164,263,265,0,226,71,22,49,246,67,0,0,125,0,0,0,0,15,10,54,214,15,0,0,123,0,76,43,62,0,0,200,0,0,0,0,0,0,0,0,0,0,0,0,0,0,0,0,0,0,0,0,0,0],"split_type":[0,0,0,0,0,0,0,0,0,0,0,0,0,0,0,0,0,0,0,0,0,0,0,0,0,0,0,0,0,0,0,0,0,0,0,0,0,0,0,0,0,0,0,0,0,0,0,0,0,0,0,0,0,0,0,0,0,0,0,0,0,0,0,0,0,0,0,0,0,0,0],"sum_hessian":[1.0937417E3,5.861427E2,5.0759897E2,1.4437811E2,4.417646E2,4.3818567E2,6.9413284E1,4.2703125E1,1.0167498E2,4.0534277E2,3.6421806E1,2.690008E2,1.6918489E2,6.5937996E1,3.4752834E0,3.645956E0,3.905717E1,1.1241894E1,9.043309E1,3.9591553E2,9.427244E0,2.9269217E1,7.1525908E0,7.735539E1,1.9164539E2,6.3553238E1,1.0563165E2,6.490307E1,1.0349259E0,3.6519802E1,2.5373666E0,9.489507E0,1.752387E0,4.477279E1,4.56603E1,8.479746E0,3.874358E2,2.4423832E1,4.8453856E0,1.582097E0,5.5704937E0,4.8826218E1,2.8529175E1,1.0637019E2,8.52752E1,6.0253185E1,3.300052E0,7.9198565E0,9.771179E1,3.4961617E1,1.5581876E0,1.45104885E1,3.114981E1,6.66283E0,1.8169162E0,2.9244852E0,3.845113E2,1.1708565E0,2.3252975E1,2.745232E0,2.1001532E0,1.2736054E1,3.6090164E1,5.394166E0,1.0097602E2,5.4090866E1,3.1184338E1,1.3984091E0,5.8854774E1,2.2169971E1,7.5541824E1],"tree_param":{"num_deleted":"0","num_feature":"283","num_nodes":"71","size_leaf_vector":"0"}},{"base_weights":[1.427919E-1,4.499054E-1,-6.277102E-2,5.3515834E-1,-6.0569197E-1,-7.723872E-1,5.8892228E-2,8.3654433E-1,2.8182968E-1,-1.2592527E0,3.9699596E-1,-1.0277646E0,2.1617718E-1,-1.9148631E-1,3.8839886E-1,-6.9705725E-1,8.8561094E-1,6.4494145E-1,-3.096541E-1,-1.147937E0,7.890076E-1,8.814232E-1,-1.0982653E0,1.0525593E0,-6.636848E-1,1.0414693E-1,-7.0456576E-1,4.8390618E-1,-9.048019E-1,6.1999124E-1,-1.1660053E0,9.624824E-1,-1.338086E-1,-1.5486784E0,7.214369E-1,3.6598516E-1,-9.427362E-1,-6.396879E-1,1.039157E0,-1.190026E0,-1.5453164E-1,2.018889E-1,1.2762434E0,-1.1733092E0,7.322939E-1,-1.0758866E0,3.3490598E-1,7.228044E-1,-8.629411E-1,6.30417E-1,-3.3281252E-1,-1.2927191E0,9.552143E-1,1.0164787E0,-4.9031192E-1,6.506488E-1,-1.6675112E0,-1.579503E-1,9.0114427E-1,6.608837E-1,-1.0477989E0,-1.3262947E0,6.708351E-2,-9.282635E-1,8.425326E-1,5.8537406E-1,-1.2884473E0,-1.1558017E-1,7.440065E-1,1.150641E0,-7.6487166E-1,-1.0997646E0,1.674058E-1,-1.0791494E0,7.164716E-1,6.5206146E-1,-1.2458267E0],"categories":[],"categories_nodes":[],"categories_segments":[],"categories_sizes":[],"default_left":[1,1,1,1,1,1,1,1,1,0,1,1,1,1,1,1,1,1,1,0,1,0,1,1,1,1,1,1,1,0,0,1,1,0,1,1,1,0,0,0,1,0,0,0,0,1,1,1,1,1,1,0,0,0,0,0,0,0,0,0,0,0,0,0,0,0,0,0,0,0,0,0,0,0,0,0,0],"id":11,"left_children":[1,3,5,7,9,11,13,15,17,-1,19,21,23,25,27,29,31,33,35,-1,37,-1,39,41,43,45,47,49,51,-1,-1,53,55,-1,57,59,61,-1,-1,-1,63,-1,-1,-1,-1,65,67,69,71,73,75,-1,-1,-1,-1,-1,-1,-1,-1,-1,-1,-1,-1,-1,-1,-1,-1,-1,-1,-1,-1,-1,-1,-1,-1,-1,-1],"loss_changes":[6.498624E1,3.7462868E1,5.333544E1,2.8958641E1,2.1016642E1,2.3046741E1,4.362208E1,1.37193985E1,4.514354E1,0E0,8.848326E0,1.0662231E1,1.4965513E1,4.5670013E1,2.8627544E1,4.402505E0,1.3384842E1,2.2929123E1,3.468132E1,0E0,4.6149406E0,0E0,5.8695526E0,1.7071524E0,8.017023E0,5.2529957E1,2.5494362E1,2.5720032E1,1.281206E1,0E0,0E0,1.2847305E1,1.6411978E1,0E0,2.0099892E1,1.7182816E1,1.6249008E1,0E0,0E0,0E0,6.44748E0,0E0,0E0,0E0,0E0,1.1903801E1,2.9759521E1,8.220091E0,2.4459618E1,2.7417496E1,3.0559708E1,0E0,0E0,0E0,0E0,0E0,0E0,0E0,0E0,0E0,0E0,0E0,0E0,0E0,0E0,0E0,0E0,0E0,0E0,0E0,0E0,0E0,0E0,0E0,0E0,0E0,0E0],"parents":[2147483647,0,0,1,1,2,2,3,3,4,4,5,5,6,6,7,7,8,8,10,10,11,11,12,12,13,13,14,14,15,15,16,16,17,17,18,18,20,20,22,22,23,23,24,24,25,25,26,26,27,27,28,28,31,31,32,32,34,34,35,35,36,36,40,40,45,45,46,46,47,47,48,48,49,49,50,50],"right_children":[2,4,6,8,10,12,14,16,18,-1,20,22,24,26,28,30,32,34,36,-1,38,-1,40,42,44,46,48,50,52,-1,-1,54,56,-1,58,60,62,-1,-1,-1,64,-1,-1,-1,-1,66,68,70,72,74,76,-1,-1,-1,-1,-1,-1,-1,-1,-1,-1,-1,-1,-1,-1,-1,-1,-1,-1,-1,-1,-1,-1,-1,-1,-1,-1],"split_conditions":[-7.25E-2,7.35E-2,-8.2499996E-2,-2.95E-2,2.2274285E3,3.0499998E-2,-1.35E-2,-2.75E-2,1.01500005E-1,-2.5185055E-1,-3.8000003E-2,-1.9350001E-1,-1.22999996E-1,-2.25E-2,5.15E-2,-7.75E-2,3.35E-2,5E-4,-5.2500002E-2,-2.2958742E-1,-4.85E-2,1.7628464E-1,1.13000005E-1,6E-3,3.55E-2,-8.45E-2,-6.05E-2,-1.05E-2,7.65E-2,1.2399825E-1,-2.3320106E-1,1.12E-1,-1.9E-2,-3.097357E-1,-5.0499998E-2,-2E-3,7.00265E2,-1.2793759E-1,2.0783141E-1,-2.380052E-1,2.5E-3,4.037778E-2,2.552487E-1,-2.3466185E-1,1.4645879E-1,-1.21E-1,1.35E-2,-6.35E-2,2.85E-2,-4.1E-2,-6.7499995E-2,-2.5854382E-1,1.9104287E-1,2.0329574E-1,-9.806239E-2,1.3012975E-1,-3.3350226E-1,-3.159006E-2,1.8022886E-1,1.3217674E-1,-2.0955978E-1,-2.6525894E-1,1.3416702E-2,-1.856527E-1,1.6850652E-1,1.1707481E-1,-2.5768945E-1,-2.3116035E-2,1.4880131E-1,2.301282E-1,-1.5297434E-1,-2.1995293E-1,3.3481162E-2,-2.1582988E-1,1.4329432E-1,1.304123E-1,-2.4916534E-1],"split_indices":[39,148,157,177,274,50,144,5,134,0,66,6,64,39,151,6,138,137,17,0,70,0,206,249,80,252,142,211,15,0,0,37,155,0,150,27,282,0,0,0,158,0,0,0,0,122,146,241,157,156,95,0,0,0,0,0,0,0,0,0,0,0,0,0,0,0,0,0,0,0,0,0,0,0,0,0,0],"split_type":[0,0,0,0,0,0,0,0,0,0,0,0,0,0,0,0,0,0,0,0,0,0,0,0,0,0,0,0,0,0,0,0,0,0,0,0,0,0,0,0,0,0,0,0,0,0,0,0,0,0,0,0,0,0,0,0,0,0,0,0,0,0,0,0,0,0,0,0,0,0,0,0,0,0,0,0,0],"sum_hessian":[1.0279375E3,4.1168558E2,6.1625183E2,3.8137753E2,3.0308067E1,8.9409744E1,5.268421E2,1.7311717E2,2.0826035E2,1.8193506E1,1.2114561E1,7.102269E1,1.8387053E1,2.9960413E2,2.2723799E2,4.957626E0,1.6815955E2,1.2898567E2,7.9274666E1,2.061558E0,1.0053003E1,2.119643E0,6.8903046E1,9.325812E0,9.061239E0,1.9058641E2,1.0901771E2,2.1219264E2,1.5045349E1,1.21715E0,3.7404757E0,1.5642021E2,1.1739345E1,3.6978884E0,1.2528779E2,3.8552494E1,4.072217E1,1.2658793E0,8.787125E0,6.255933E1,6.34372E0,2.3377852E0,6.9880276E0,6.754799E0,2.3064404E0,3.0574593E1,1.6001181E2,1.0532133E1,9.848558E1,1.8011076E2,3.208188E1,1.2701395E1,2.3439538E0,1.5110442E2,5.3158007E0,8.147719E0,3.5916247E0,2.1279402E1,1.04008385E2,3.2339417E1,6.213077E0,2.9285358E1,1.1436815E1,3.6107473E0,2.7329729E0,3.2693307E0,2.7305262E1,7.6495415E1,8.35164E1,8.355694E0,2.176439E0,8.0024666E1,1.846091E1,8.078694E0,1.7203207E2,1.5571077E1,1.6510801E1],"tree_param":{"num_deleted":"0","num_feature":"283","num_nodes":"77","size_leaf_vector":"0"}},{"base_weights":[1.4935817E-1,3.9271924E-1,-9.082579E-2,1.9454975E-1,6.7969775E-1,-2.873813E-1,3.824951E-1,-1.7096278E-1,4.985066E-1,7.4594027E-1,-7.6221156E-1,-5.059329E-1,2.0715326E-1,6.229639E-1,-2.1423729E-1,1.6821562E-1,-7.619323E-1,1.6213117E0,3.7155715E-1,-1.3562226E0,7.779808E-1,7.3179436E-1,-1.1747719E0,1.018575E-1,-7.356859E-1,3.403565E-1,-1.0539799E0,-1.7014017E0,7.0086604E-1,3.28377E-1,-1.0012009E0,-5.553091E-1,4.4922084E-1,-1.1437374E0,4.7701168E-1,-7.577965E-1,1.9495895E0,5.062423E-1,-6.5873945E-1,-8.623231E-1,8.0963224E-1,4.8048055E-1,-1.0119388E0,4.8024324E-1,-9.0410113E-1,-7.895091E-1,4.8090196E-1,8.247559E-1,-5.324922E-1,6.293538E-1,-1.1115615E0,-1.131484E0,5.5765146E-1,-1.4996632E0,4.9073803E-1,5.88796E-1,-1.2941874E0,1.9710372E-1,-1.2963305E0,8.430594E-1,-9.8314655E-1,1.491065E0,3.1436775E0,7.381172E-1,-2.0477475E-1,6.813766E-1,-1.4858302E0,-1.6397533E0,5.947633E-1,8.27225E-1,-1.1574513E0,6.7701447E-1,-1.0238442E0,-1.2523866E0,6.98748E-1,1.1329625E0,-9.545121E-1,-1.0757623E0,6.471086E-2,-1.2821733E0,3.9365524E-1,6.9911873E-1,-1.7407049E-1,8.950239E-1,-9.4716513E-1,-1.2013447E0,4.4624868E-1,-6.2991935E-1,8.6527044E-1],"categories":[],"categories_nodes":[],"categories_segments":[],"categories_sizes":[],"default_left":[1,1,1,1,1,1,1,1,1,1,1,1,1,1,1,1,1,1,1,0,1,0,0,1,1,1,0,0,1,1,1,1,1,1,1,0,1,1,1,1,1,1,1,1,1,1,1,1,1,1,0,0,0,0,0,0,0,0,0,0,0,0,0,0,0,0,0,0,0,0,0,0,0,0,0,0,0,0,0,0,0,0,0,0,0,0,0,0,0],"id":12,"left_children":[1,3,5,7,9,11,13,15,17,19,21,23,25,27,29,31,33,35,37,-1,39,-1,-1,41,43,45,-1,-1,47,49,51,53,55,57,59,-1,61,63,65,67,69,71,73,75,77,79,81,83,85,87,-1,-1,-1,-1,-1,-1,-1,-1,-1,-1,-1,-1,-1,-1,-1,-1,-1,-1,-1,-1,-1,-1,-1,-1,-1,-1,-1,-1,-1,-1,-1,-1,-1,-1,-1,-1,-1,-1,-1],"loss_changes":[5.7076332E1,2.7445007E1,4.5877937E1,3.210883E1,1.9449448E1,3.7735798E1,2.090836E1,2.6509369E1,2.1865715E1,1.3818489E1,6.5160913E0,3.383372E1,1.8403885E1,1.992426E1,1.840375E1,1.7417297E1,2.3333471E1,1.3750484E1,2.0164896E1,0E0,1.04217E1,0E0,0E0,2.8823162E1,3.6385025E1,1.592815E1,0E0,0E0,1.5841854E1,1.1883917E1,4.1894817E0,2.4511505E1,1.569599E1,7.8503036E0,7.27164E0,0E0,3.0265045E0,2.1082016E1,1.9807413E1,5.540069E0,7.333954E0,1.5719971E1,8.019625E0,2.169446E1,2.5771858E1,7.039505E0,1.2656746E1,1.2301788E1,6.9573555E0,7.0760384E0,0E0,0E0,0E0,0E0,0E0,0E0,0E0,0E0,0E0,0E0,0E0,0E0,0E0,0E0,0E0,0E0,0E0,0E0,0E0,0E0,0E0,0E0,0E0,0E0,0E0,0E0,0E0,0E0,0E0,0E0,0E0,0E0,0E0,0E0,0E0,0E0,0E0,0E0,0E0],"parents":[2147483647,0,0,1,1,2,2,3,3,4,4,5,5,6,6,7,7,8,8,9,9,10,10,11,11,12,12,13,13,14,14,15,15,16,16,17,17,18,18,20,20,23,23,24,24,25,25,28,28,29,29,30,30,31,31,32,32,33,33,34,34,36,36,37,37,38,38,39,39,40,40,41,41,42,42,43,43,44,44,45,45,46,46,47,47,48,48,49,49],"right_children":[2,4,6,8,10,12,14,16,18,20,22,24,26,28,30,32,34,36,38,-1,40,-1,-1,42,44,46,-1,-1,48,50,52,54,56,58,60,-1,62,64,66,68,70,72,74,76,78,80,82,84,86,88,-1,-1,-1,-1,-1,-1,-1,-1,-1,-1,-1,-1,-1,-1,-1,-1,-1,-1,-1,-1,-1,-1,-1,-1,-1,-1,-1,-1,-1,-1,-1,-1,-1,-1,-1,-1,-1,-1,-1],"split_conditions":[-8.5E-3,7.15E-2,3.9499998E-2,3.25E-2,3.9499998E-2,1.05E-2,4.05E-2,1.23500004E-1,-7.75E-2,9.9570703E2,-5.2365E0,-1.65E-2,1.85E-1,3.5E-3,1.2650001E-1,2.5384297E3,7.5000003E-3,1.45E-2,6.5E-3,-2.7124453E-1,-1.69E-1,1.4635888E-1,-2.3495439E-1,2.55E-2,-1.435E-1,-4.35E-2,-2.1079598E-1,-3.4028035E-1,4.75E-2,2.1499999E-2,5.0000004E-2,1.75E-2,2.4E-2,-1.11E-1,-7.999999E-3,-1.5155931E-1,1.145E-1,-2.75E-2,-9.25E-2,8.95E-2,6.95E-2,4E-2,1.435E-1,5.15E-2,6.95E-2,7.75E-2,1.55E-2,6.9000006E-2,8.6500004E-2,-3.75E-2,-2.2231232E-1,-2.2629681E-1,1.115303E-1,-2.9993266E-1,9.814761E-2,1.17759205E-1,-2.588375E-1,3.9420746E-2,-2.592661E-1,1.6861188E-1,-1.9662932E-1,2.98213E-1,6.287355E-1,1.4762345E-1,-4.095495E-2,1.3627532E-1,-2.9716605E-1,-3.279507E-1,1.18952654E-1,1.6544501E-1,-2.3149025E-1,1.354029E-1,-2.0476885E-1,-2.504773E-1,1.397496E-1,2.265925E-1,-1.9090243E-1,-2.1515246E-1,1.2942173E-2,-2.5643465E-1,7.873105E-2,1.3982375E-1,-3.48141E-2,1.7900477E-1,-1.8943302E-1,-2.4026895E-1,8.924974E-2,-1.2598388E-1,1.7305408E-1],"split_indices":[33,28,227,74,151,76,34,9,2,265,7,204,9,0,0,281,76,129,211,0,65,0,0,34,215,146,0,0,92,114,1,19,112,147,117,0,10,39,29,0,69,109,132,242,210,230,111,148,91,249,0,0,0,0,0,0,0,0,0,0,0,0,0,0,0,0,0,0,0,0,0,0,0,0,0,0,0,0,0,0,0,0,0,0,0,0,0,0,0],"split_type":[0,0,0,0,0,0,0,0,0,0,0,0,0,0,0,0,0,0,0,0,0,0,0,0,0,0,0,0,0,0,0,0,0,0,0,0,0,0,0,0,0,0,0,0,0,0,0,0,0,0,0,0,0,0,0,0,0,0,0,0,0,0,0,0,0,0,0,0,0,0,0,0,0,0,0,0,0,0,0,0,0,0,0,0,0,0,0,0,0],"sum_hessian":[9.748643E2,4.8391406E2,4.9095026E2,2.8724112E2,1.9667293E2,3.4717294E2,1.4377733E2,1.3061374E2,1.566274E2,1.8849593E2,8.176993E0,2.4075298E2,1.0641997E2,1.0244892E2,4.1328407E1,8.343995E1,4.7173794E1,1.471441E1,1.4191298E2,2.2094052E0,1.8628653E2,1.6019735E0,6.57502E0,6.61955E1,1.7455746E2,9.6913864E1,9.5061035E0,2.6464522E0,9.980247E1,2.4806774E1,1.6521633E1,2.3068258E1,6.0371693E1,3.6119656E1,1.105414E1,1.6255152E0,1.3088895E1,1.2595606E2,1.5956915E1,3.029725E0,1.832568E2,4.982622E1,1.636928E1,2.1010891E1,1.5354657E2,1.0210742E1,8.670312E1,9.099353E1,8.808937E0,2.0983683E1,3.823092E0,1.5500328E1,1.0213051E0,1.1895526E1,1.1172733E1,5.6509853E1,3.8618395E0,3.6607554E0,3.24589E1,9.176343E0,1.8777969E0,1.1082116E1,2.0067782E0,9.4952354E1,3.1003712E1,6.1570177E0,9.799897E0,1.893879E0,1.1358461E0,1.8220668E2,1.0501165E0,4.455522E1,5.2710037E0,1.4586903E1,1.7823768E0,1.4585702E1,6.4251895E0,1.3034135E2,2.3205225E1,7.1498823E0,3.0608592E0,6.498478E1,2.171834E1,8.79987E1,2.994826E0,5.097777E0,3.7111607E0,3.04737E0,1.7936312E1],"tree_param":{"num_deleted":"0","num_feature":"283","num_nodes":"89","size_leaf_vector":"0"}},{"base_weights":[1.5801975E-1,-2.3322577E-2,4.2013177E-1,2.7606267E-1,-2.710107E-1,-3.7571368E-1,5.007093E-1,3.9657208E-1,-8.007653E-1,-9.0825856E-1,-1.253322E-1,-1.2951149E0,2.9997617E-1,5.357496E-1,-9.19135E-1,5.9181803E-1,-1.5177067E-1,-1.247788E0,3.6618146E-1,2.3255129E-1,-1.2107564E0,3.1734315E-1,-4.43672E-1,6.3942903E-1,-1.277022E0,5.851639E-1,-4.7199318E-1,6.03328E-1,-1.2466524E0,6.764675E-1,-9.2518306E-1,-1.3688769E0,2.7388144E-1,-1.0375808E0,9.687888E-1,1.0871844E0,-8.447408E-1,4.57182E-1,-1.0553024E0,1.440463E-1,-8.0866855E-1,8.349E-1,-8.368865E-1,6.0894966E-1,-1.2941593E0,6.5841573E-1,-1.122876E0,7.8139013E-1,-2.738719E-1,-1.1775944E0,5.052199E-1,3.140789E-1,-1.5168147E0,-1.3677502E0,5.312059E-1,-1.0885735E0,1.6533644E-1,5.7557654E-1,-1.1970314E0,4.8077992E-1,-1.2120025E0,2.281442E-2,-1.0438297E0,9.83021E-1,-6.47764E-1,6.557394E-1,-3.6034805E-1,-1.5041709E-1,9.1869706E-1,-1.27537E0,1.5058398E-1],"categories":[],"categories_nodes":[],"categories_segments":[],"categories_sizes":[],"default_left":[1,1,1,1,1,1,1,1,1,1,1,0,1,1,1,1,1,0,1,1,0,1,1,1,0,1,1,0,0,1,1,1,1,0,0,0,1,1,0,1,1,1,0,1,0,1,1,0,0,0,0,0,0,0,0,0,0,0,0,0,0,0,0,0,0,0,0,0,0,0,0],"id":13,"left_children":[1,3,5,7,9,11,13,15,17,19,21,-1,23,25,27,29,31,-1,33,35,-1,37,39,41,-1,43,45,-1,-1,47,49,51,53,-1,-1,-1,55,57,-1,59,61,63,-1,65,-1,67,69,-1,-1,-1,-1,-1,-1,-1,-1,-1,-1,-1,-1,-1,-1,-1,-1,-1,-1,-1,-1,-1,-1,-1,-1],"loss_changes":[4.270015E1,3.9510693E1,2.3743958E1,3.1627018E1,2.6950476E1,2.1723564E1,1.7108871E1,2.3392643E1,1.3297261E1,1.8946209E1,3.3743553E1,0E0,1.1847934E1,1.6538574E1,4.946732E0,2.126329E1,3.0395092E1,0E0,7.426302E0,1.2127374E1,0E0,1.9740568E1,2.9960167E1,5.7844443E0,0E0,1.4723892E1,1.2377971E1,0E0,0E0,1.5449509E1,3.8141217E0,4.256111E0,1.9214565E1,0E0,0E0,0E0,1.6450238E0,1.8658375E1,0E0,2.5308132E1,1.6834446E1,4.164524E0,0E0,1.4229561E1,0E0,1.4877374E0,2.2132359E0,0E0,0E0,0E0,0E0,0E0,0E0,0E0,0E0,0E0,0E0,0E0,0E0,0E0,0E0,0E0,0E0,0E0,0E0,0E0,0E0,0E0,0E0,0E0,0E0],"parents":[2147483647,0,0,1,1,2,2,3,3,4,4,5,5,6,6,7,7,8,8,9,9,10,10,12,12,13,13,14,14,15,15,16,16,18,18,19,19,21,21,22,22,23,23,25,25,26,26,29,29,30,30,31,31,32,32,36,36,37,37,39,39,40,40,41,41,43,43,45,45,46,46],"right_children":[2,4,6,8,10,12,14,16,18,20,22,-1,24,26,28,30,32,-1,34,36,-1,38,40,42,-1,44,46,-1,-1,48,50,52,54,-1,-1,-1,56,58,-1,60,62,64,-1,66,-1,68,70,-1,-1,-1,-1,-1,-1,-1,-1,-1,-1,-1,-1,-1,-1,-1,-1,-1,-1,-1,-1,-1,-1,-1,-1],"split_conditions":[9.45E-2,-2.05E-2,-4.35E-2,6.05E-2,2.0582405E3,7.25E-2,3.15E-2,4.35E-2,-5.2E-2,-3.35E-2,-3.5E-3,-2.5902298E-1,9E-3,1.205E-1,-1.285E-1,5.3000003E-2,-1.5E-3,-2.495576E-1,7.6000005E-2,1.9E-2,-2.4215129E-1,5.95E-2,-5.0499998E-2,5.5E-2,-2.554044E-1,5.8E-2,-9.9E-2,1.206656E-1,-2.4933048E-1,2.75E-2,4.85E-2,-6.35E-2,3.0499998E-2,-2.0751618E-1,1.9375776E-1,2.174369E-1,-1.45000005E-2,9.6E-2,-2.1106048E-1,1.075E-1,4.35E-2,5.55E-2,-1.6737731E-1,7.05E-2,-2.5883186E-1,1.815E-1,2.6999999E-2,1.5627803E-1,-5.477438E-2,-2.3551889E-1,1.0104398E-1,6.281578E-2,-3.0336294E-1,-2.7355003E-1,1.0624118E-1,-2.177147E-1,3.306729E-2,1.1511531E-1,-2.3940627E-1,9.6155986E-2,-2.4240051E-1,4.562884E-3,-2.0876594E-1,1.966042E-1,-1.2955281E-1,1.3114789E-1,-7.206961E-2,-3.0083418E-2,1.8373941E-1,-2.55074E-1,3.0116796E-2],"split_indices":[226,23,127,201,260,184,108,224,133,134,174,0,26,107,30,20,169,0,210,169,0,148,95,109,0,200,200,0,0,84,13,48,137,0,0,0,55,192,0,100,49,40,0,27,0,57,56,0,0,0,0,0,0,0,0,0,0,0,0,0,0,0,0,0,0,0,0,0,0,0,0],"split_type":[0,0,0,0,0,0,0,0,0,0,0,0,0,0,0,0,0,0,0,0,0,0,0,0,0,0,0,0,0,0,0,0,0,0,0,0,0,0,0,0,0,0,0,0,0,0,0,0,0,0,0,0,0,0,0,0,0,0,0,0,0,0,0,0,0,0,0,0,0,0,0],"sum_hessian":[8.97139E2,5.308093E2,3.6632968E2,2.4027269E2,2.9053662E2,3.3343254E1,3.3298642E2,2.1665791E2,2.3614788E1,5.308591E1,2.3745071E2,1.3736064E1,1.960719E1,3.2557425E2,7.412183E0,1.5971103E2,5.6946877E1,1.702409E1,6.5906982E0,1.1174555E1,4.1911354E1,9.932918E1,1.3812154E2,1.6623472E1,2.9837165E0,3.107558E2,1.481846E1,1.1631516E0,6.249031E0,1.5179488E2,7.9161572E0,1.4181229E1,4.2765648E1,1.7627009E0,4.827997E0,6.2261043E0,4.948451E0,9.075083E1,8.578345E0,5.3147945E1,8.4973595E1,1.506347E1,1.5600028E0,3.0753937E2,3.21641E0,5.410427E0,9.408033E0,1.368623E2,1.4932572E1,6.879014E0,1.0371432E0,1.0551114E0,1.3126117E1,5.210348E0,3.7555298E1,3.9235845E0,1.0248662E0,8.529798E1,5.4528527E0,4.3092648E1,1.0055298E1,1.893306E1,6.6040535E1,1.4001666E1,1.0618033E0,2.936861E2,1.3853285E1,1.4199582E0,3.990469E0,8.400583E0,1.0074499E0],"tree_param":{"num_deleted":"0","num_feature":"283","num_nodes":"71","size_leaf_vector":"0"}},{"base_weights":[9.778859E-2,-6.587336E-2,4.5816413E-1,3.2928724E-2,-8.855298E-1,-7.4211085E-1,5.3536403E-1,2.2252606E-1,-2.951279E-1,-1.0744557E0,9.627366E-1,-1.0952219E0,8.971281E-1,5.9067476E-1,-9.876363E-1,9.598683E-3,5.904675E-1,-5.9278387E-1,1.668616E-1,7.616366E-1,-1.1466818E0,6.268488E-1,-7.445009E-1,-1.1425151E0,9.766088E-2,-1.0278744E-1,9.944014E-1,7.373353E-1,-5.671053E-1,-8.691176E-1,6.634825E-2,4.3458408E-1,-7.9152286E-1,-1.1813155E0,3.1659248E-1,-1.0197401E0,6.55538E-1,6.3763607E-1,-1.1935517E0,5.1424894E-2,-8.647247E-1,-1.1794883E0,1.2213906E0,8.706782E-1,-3.954829E-2,-1.1697098E0,6.634035E-1,-1.0087239E0,8.102419E-1,-9.610503E-1,4.816095E-1,7.1584165E-1,-5.565817E-1,-1.0960709E0,6.02069E-1,6.822241E-1,-1.0225253E0],"categories":[],"categories_nodes":[],"categories_segments":[],"categories_sizes":[],"default_left":[1,1,1,1,1,1,1,1,1,1,0,0,0,1,1,1,1,1,1,0,1,1,1,0,0,1,1,1,1,1,1,1,1,0,0,0,1,0,0,0,0,0,0,0,0,0,0,0,0,0,0,0,0,0,0,0,0],"id":14,"left_children":[1,3,5,7,9,11,13,15,17,19,-1,-1,-1,21,23,25,27,29,31,-1,33,35,37,-1,-1,39,41,43,45,47,49,51,53,-1,-1,-1,55,-1,-1,-1,-1,-1,-1,-1,-1,-1,-1,-1,-1,-1,-1,-1,-1,-1,-1,-1,-1],"loss_changes":[4.8435356E1,4.5806644E1,2.415939E1,3.1502342E1,2.228019E1,1.0195393E1,2.0928978E1,2.5133293E1,2.5614304E1,8.25647E0,0E0,0E0,0E0,1.1753426E1,1.5972023E0,2.2710428E1,2.0412373E1,2.0651043E1,1.9198715E1,0E0,3.1089096E0,1.1442108E1,4.8706064E0,0E0,0E0,2.1694178E1,1.181156E1,1.0890797E1,1.1013717E1,1.951125E1,1.5108335E1,1.6590832E1,7.620288E0,0E0,0E0,0E0,1.0762917E1,0E0,0E0,0E0,0E0,0E0,0E0,0E0,0E0,0E0,0E0,0E0,0E0,0E0,0E0,0E0,0E0,0E0,0E0,0E0,0E0],"parents":[2147483647,0,0,1,1,2,2,3,3,4,4,5,5,6,6,7,7,8,8,9,9,13,13,14,14,15,15,16,16,17,17,18,18,20,20,21,21,22,22,25,25,26,26,27,27,28,28,29,29,30,30,31,31,32,32,36,36],"right_children":[2,4,6,8,10,12,14,16,18,20,-1,-1,-1,22,24,26,28,30,32,-1,34,36,38,-1,-1,40,42,44,46,48,50,52,54,-1,-1,-1,56,-1,-1,-1,-1,-1,-1,-1,-1,-1,-1,-1,-1,-1,-1,-1,-1,-1,-1,-1,-1],"split_conditions":[3.75E-2,1.9049999E-1,-9.05E-2,7.75E-2,9E-2,2.115E-1,6.95E-2,7.05E-2,3.65E-2,-1.455E-1,1.9254732E-1,-2.1904437E-1,1.7942563E-1,5.7499997E-2,6.3E-2,1.04499996E-1,-1.05E-2,8.05E-2,1.125E-1,1.5232733E-1,9.05E-2,-1.065E-1,-2.685E-1,-2.2850302E-1,1.9532176E-2,1.05E-2,-7.45E-2,5.2E-2,3E-3,2.1303012E4,-4.95E-2,3.5E-3,1.5808846E4,-2.3626311E-1,6.33185E-2,-2.0394802E-1,9.9999994E-2,1.2752722E-1,-2.3871033E-1,1.0284979E-2,-1.7294495E-1,-2.3589766E-1,2.4427812E-1,1.7413564E-1,-7.909658E-3,-2.3394196E-1,1.326807E-1,-2.0174478E-1,1.6204838E-1,-1.9221006E-1,9.63219E-2,1.4316833E-1,-1.1131634E-1,-2.1921419E-1,1.204138E-1,1.3644482E-1,-2.0450507E-1],"split_indices":[227,186,15,59,230,79,40,46,81,78,0,0,0,114,238,115,108,149,49,0,132,117,8,0,0,111,170,175,71,270,211,73,279,0,0,0,112,0,0,0,0,0,0,0,0,0,0,0,0,0,0,0,0,0,0,0,0],"split_type":[0,0,0,0,0,0,0,0,0,0,0,0,0,0,0,0,0,0,0,0,0,0,0,0,0,0,0,0,0,0,0,0,0,0,0,0,0,0,0,0,0,0,0,0,0,0,0,0,0,0,0,0,0,0,0,0,0],"sum_hessian":[8.197081E2,5.642674E2,2.5544075E2,5.0442358E2,5.9843822E1,1.4916219E1,2.4052454E2,3.198759E2,1.8454768E2,5.4673843E1,5.1699767E0,1.2545619E1,2.3705997E0,2.3268625E2,7.8382907E0,2.0326988E2,1.1660601E2,1.12063194E2,7.24845E1,1.7080312E0,5.2965813E1,2.2706487E2,5.6213756E0,6.813273E0,1.025018E0,1.8325264E2,2.0017246E1,1.0379942E2,1.2806591E1,7.8735596E1,3.3327595E1,5.7084587E1,1.5399905E1,5.19294E1,1.0364097E0,3.2969208E0,2.2376794E2,1.2755097E0,4.3458657E0,1.5318188E2,3.007075E1,1.4957849E0,1.8521461E1,8.849037E1,1.5309053E1,8.629812E0,4.1767793E0,7.30613E1,5.6742935E0,9.214833E0,2.4112762E1,4.4682938E1,1.2401649E1,1.2813256E1,2.5866482E0,2.2084924E2,2.9186997E0],"tree_param":{"num_deleted":"0","num_feature":"283","num_nodes":"57","size_leaf_vector":"0"}},{"base_weights":[1.021178E-1,2.7557032E-2,5.6671196E-1,-2.0630425E-1,2.0188928E-1,7.029046E-1,-5.253059E-1,3.063739E-2,-5.442614E-1,-1.1541673E0,2.4828357E-1,7.725632E-1,-1.2931149E0,-1.2792951E0,1.01068E0,3.1801322E-1,-4.1027048E-1,-2.1105492E-1,-9.433994E-1,-5.112874E-1,3.2504642E-1,9.157742E-1,2.2175357E-2,-1.4502628E0,8.449438E-3,4.6019134E-1,-6.8635744E-1,-6.7981476E-1,6.5581137E-1,4.3577522E-2,-1.2262547E0,5.723952E-1,-1.1540278E0,6.442833E-1,-1.2158321E0,6.93902E-2,5.5625594E-1,-5.4156643E-1,9.79058E-1,-1.3816489E0,5.540903E-1,5.390098E-1,-1.1969689E0,8.303084E-1,-1.4162083E0,9.6751094E-2,-1.0818589E0,9.549401E-1,-7.8327E-1,-1.148842E0,3.1954902E-1,-1.3261093E0,-5.5996604E-2,-6.555595E-1,9.883837E-1,-1.2611285E0,-3.2995418E-2,9.032056E-1,-6.923869E-1,3.4207654E-1,-5.7301605E-1,2.3767637E-1,8.339315E-1,4.740184E-1,-1.0490606E0,-7.823021E-1,1.0143237E0,-8.4976554E-1,8.771277E-1],"categories":[],"categories_nodes":[],"categories_segments":[],"categories_sizes":[],"default_left":[1,1,1,1,1,1,1,1,1,0,1,1,0,1,0,1,1,1,1,1,1,1,1,0,0,1,1,1,1,1,1,1,1,1,0,1,1,1,1,0,1,0,0,0,0,0,0,0,0,0,0,0,0,0,0,0,0,0,0,0,0,0,0,0,0,0,0,0,0],"id":15,"left_children":[1,3,5,7,9,11,13,15,17,-1,19,21,-1,23,-1,25,27,29,31,33,35,37,39,-1,-1,41,43,45,47,49,51,53,55,57,-1,59,61,63,65,-1,67,-1,-1,-1,-1,-1,-1,-1,-1,-1,-1,-1,-1,-1,-1,-1,-1,-1,-1,-1,-1,-1,-1,-1,-1,-1,-1,-1,-1],"loss_changes":[2.733603E1,2.7823809E1,1.6601395E1,2.3361034E1,2.4880398E1,1.4550892E1,1.59718075E1,2.1964798E1,1.5787567E1,0E0,2.225326E1,1.0167976E1,0E0,1.9811382E0,0E0,1.5293881E1,2.0110743E1,1.7321802E1,1.8029858E1,2.9406855E1,2.0333721E1,7.8702927E0,1.28764105E1,0E0,0E0,1.272448E1,1.6017847E1,1.7312078E1,6.9121904E0,1.825945E1,1.4950714E0,4.379856E0,5.7331314E0,5.4603043E0,0E0,2.9067503E1,1.5798809E1,2.5362394E0,5.553528E0,0E0,6.403138E0,0E0,0E0,0E0,0E0,0E0,0E0,0E0,0E0,0E0,0E0,0E0,0E0,0E0,0E0,0E0,0E0,0E0,0E0,0E0,0E0,0E0,0E0,0E0,0E0,0E0,0E0,0E0,0E0],"parents":[2147483647,0,0,1,1,2,2,3,3,4,4,5,5,6,6,7,7,8,8,10,10,11,11,13,13,15,15,16,16,17,17,18,18,19,19,20,20,21,21,22,22,25,25,26,26,27,27,28,28,29,29,30,30,31,31,32,32,33,33,35,35,36,36,37,37,38,38,40,40],"right_children":[2,4,6,8,10,12,14,16,18,-1,20,22,-1,24,-1,26,28,30,32,34,36,38,40,-1,-1,42,44,46,48,50,52,54,56,58,-1,60,62,64,66,-1,68,-1,-1,-1,-1,-1,-1,-1,-1,-1,-1,-1,-1,-1,-1,-1,-1,-1,-1,-1,-1,-1,-1,-1,-1,-1,-1,-1,-1],"split_conditions":[2.6500002E-2,-3.15E-2,5.2500002E-2,-5.5E-3,-9.45E-2,2.95E-2,6.85E-2,1.85E-2,6.05E-2,-2.3083346E-1,-1.055E-1,-3.9499998E-2,-2.5862297E-1,9E-2,2.02136E-1,5.95E-2,6.85E-2,5.15E-2,-1.005E-1,-6.0999997E-2,-2.6500002E-2,7.5000003E-3,6.3E-2,-2.9005256E-1,1.6898876E-3,1.02E-1,-9.65E-2,-8.2499996E-2,-7.0999995E-2,-6.95E-2,6.25E-2,4.6849893E3,4.7067266E4,7E-2,-2.4316643E-1,2.868235E2,1.2692806E4,-3.95E-2,-1.9499999E-2,-2.763298E-1,-6.0000002E-2,1.0780197E-1,-2.3939379E-1,1.6606168E-1,-2.8324166E-1,1.935022E-2,-2.1637177E-1,1.9098802E-1,-1.56654E-1,-2.297684E-1,6.390981E-2,-2.6522186E-1,-1.1199321E-2,-1.311119E-1,1.9767675E-1,-2.5222573E-1,-6.5990835E-3,1.8064111E-1,-1.3847739E-1,6.841531E-2,-1.14603214E-1,4.7535274E-2,1.667863E-1,9.480368E-2,-2.0981212E-1,-1.5646042E-1,2.0286475E-1,-1.6995311E-1,1.7542554E-1],"split_indices":[157,147,92,177,56,193,147,106,59,0,80,6,0,160,0,253,214,140,139,138,150,212,119,0,0,10,200,112,155,233,254,277,260,43,0,282,260,136,181,0,96,0,0,0,0,0,0,0,0,0,0,0,0,0,0,0,0,0,0,0,0,0,0,0,0,0,0,0,0],"split_type":[0,0,0,0,0,0,0,0,0,0,0,0,0,0,0,0,0,0,0,0,0,0,0,0,0,0,0,0,0,0,0,0,0,0,0,0,0,0,0,0,0,0,0,0,0,0,0,0,0,0,0,0,0,0,0,0,0,0,0,0,0,0,0,0,0,0,0,0,0],"sum_hessian":[7.885858E2,6.804436E2,1.08142235E2,2.9052713E2,3.8991647E2,9.6467476E1,1.1674758E1,1.7132239E2,1.19204735E2,1.2108891E1,3.778076E2,9.380668E1,2.6607912E0,7.942862E0,3.7318964E0,1.0388847E2,6.7433914E1,6.580146E1,5.340327E1,3.415749E1,3.436501E2,7.8587845E1,1.521884E1,6.90051E0,1.042352E0,9.148038E1,1.2408096E1,5.41142E1,1.3319714E1,5.3371815E1,1.2429646E1,6.305798E0,4.7097473E1,1.2970025E1,2.1187466E1,1.6381473E2,1.7983537E2,2.956057E0,7.563178E1,3.7429602E0,1.1475879E1,8.797101E1,3.509369E0,3.9864395E0,8.421658E0,1.8718311E1,3.539589E1,1.1306051E1,2.013662E0,9.436336E0,4.3935482E1,1.1329738E1,1.0999086E0,1.4499094E0,4.855889E0,4.287621E1,4.221261E0,1.1136998E1,1.8330265E0,1.1532815E2,4.8486584E1,8.46135E1,9.522187E1,1.0069456E0,1.9491116E0,1.0687627E0,7.456302E1,1.8416945E0,9.634185E0],"tree_param":{"num_deleted":"0","num_feature":"283","num_nodes":"69","size_leaf_vector":"0"}},{"base_weights":[1.01382226E-1,-1.0758506E-2,3.9170954E-1,-4.1011465E-1,8.637037E-2,4.8438993E-1,-5.5669475E-1,-7.763487E-1,1.315587E-1,2.454373E-1,-2.694889E-1,-3.683735E-2,6.2685674E-1,-1.1552638E0,6.0233825E-1,3.429061E-2,-1.0406033E0,-6.981851E-1,7.6304704E-1,7.3566216E-1,1.16090246E-1,-6.283957E-1,1.962308E-1,-7.0034295E-1,5.339617E-1,6.8008E-2,7.944403E-1,-6.1415327E-1,9.192716E-1,6.396712E-1,-8.5358566E-1,-1.2303833E0,4.4324923E-2,-9.847886E-1,6.035783E-1,-8.363761E-1,1.0122887E0,8.7872124E-1,-2.6093742E-1,-5.430157E-1,2.7286577E-1,-8.363302E-1,6.587087E-1,7.172254E-1,-4.5623454E-1,5.4417375E-2,-1.6829339E0,-9.980013E-1,7.289145E-1,3.379302E-1,-1.1432409E0,8.6230445E-1,-2.1304928E-1,9.7065634E-1,-7.3819166E-1,-1.1001121E0,3.126815E-1,-1.2953565E0,5.57017E-1,6.594384E-1,-8.0857337E-1,1.4915341E-1,-1.1471715E0,-5.2467877E-1,1.1927688E0,9.511786E-1,-7.805945E-1,-1.1785953E0,6.86556E-1,-1.0130813E0,6.054176E-1,5.714933E-1,-1.00639485E-1,-1.1070772E0,-1.5191165E-1,-8.037985E-1,9.9718404E-1,8.8502216E-1,-9.7618175E-1,2.2126837E-1,-1.26423E0,-1.1766734E0,4.7166345E-1,-2.1968582E0,-1.060852E0,-3.4946615E-1,9.821668E-1,-1.2458528E0,5.311624E-1,8.9021575E-1,-8.676738E-1,-1.3921992E0,6.3169736E-1],"categories":[],"categories_nodes":[],"categories_segments":[],"categories_sizes":[],"default_left":[1,1,1,1,1,1,1,1,1,1,1,1,1,0,1,1,1,1,1,1,1,1,1,1,1,1,1,0,0,1,1,1,1,1,0,0,1,1,1,1,1,1,1,1,1,1,1,0,1,1,0,1,1,0,0,0,0,0,0,0,0,0,0,0,0,0,0,0,0,0,0,0,0,0,0,0,0,0,0,0,0,0,0,0,0,0,0,0,0,0,0,0,0],"id":16,"left_children":[1,3,5,7,9,11,13,15,17,19,21,23,25,-1,27,29,31,33,35,37,39,41,43,45,47,49,51,-1,-1,53,55,57,59,61,-1,-1,63,65,67,69,71,73,75,77,79,81,83,-1,85,87,-1,89,91,-1,-1,-1,-1,-1,-1,-1,-1,-1,-1,-1,-1,-1,-1,-1,-1,-1,-1,-1,-1,-1,-1,-1,-1,-1,-1,-1,-1,-1,-1,-1,-1,-1,-1,-1,-1,-1,-1,-1,-1],"loss_changes":[2.4140707E1,2.0816967E1,1.842868E1,2.0929184E1,2.4506813E1,1.4038044E1,1.3777834E1,1.34844055E1,2.3170834E1,1.8868612E1,2.2497395E1,1.607516E1,1.3832649E1,0E0,3.2938964E0,9.3623705E0,9.809757E0,7.7553253E0,1.0817139E1,9.099709E0,2.4710032E1,2.0846952E1,2.0390312E1,1.463071E1,7.5527906E0,1.1927466E1,7.976555E0,0E0,0E0,5.4249744E0,2.3790426E0,5.4086533E0,4.7402387E0,3.1375399E0,0E0,0E0,6.7538033E0,7.3113403E0,8.270131E0,2.545105E1,2.1549927E1,1.2011593E1,6.299653E0,1.0299261E1,1.4959044E1,6.7479706E0,4.0232658E-1,0E0,6.037733E0,9.732418E0,0E0,5.9381256E0,8.84291E0,0E0,0E0,0E0,0E0,0E0,0E0,0E0,0E0,0E0,0E0,0E0,0E0,0E0,0E0,0E0,0E0,0E0,0E0,0E0,0E0,0E0,0E0,0E0,0E0,0E0,0E0,0E0,0E0,0E0,0E0,0E0,0E0,0E0,0E0,0E0,0E0,0E0,0E0,0E0,0E0],"parents":[2147483647,0,0,1,1,2,2,3,3,4,4,5,5,6,6,7,7,8,8,9,9,10,10,11,11,12,12,14,14,15,15,16,16,17,17,18,18,19,19,20,20,21,21,22,22,23,23,24,24,25,25,26,26,29,29,30,30,31,31,32,32,33,33,36,36,37,37,38,38,39,39,40,40,41,41,42,42,43,43,44,44,45,45,46,46,48,48,49,49,51,51,52,52],"right_children":[2,4,6,8,10,12,14,16,18,20,22,24,26,-1,28,30,32,34,36,38,40,42,44,46,48,50,52,-1,-1,54,56,58,60,62,-1,-1,64,66,68,70,72,74,76,78,80,82,84,-1,86,88,-1,90,92,-1,-1,-1,-1,-1,-1,-1,-1,-1,-1,-1,-1,-1,-1,-1,-1,-1,-1,-1,-1,-1,-1,-1,-1,-1,-1,-1,-1,-1,-1,-1,-1,-1,-1,-1,-1,-1,-1,-1,-1],"split_conditions":[4.05E-2,-1.35E-2,3.9499998E-2,1.5450001E-1,1.205E-1,3.65E-2,6.9999998E-3,-2.6500002E-2,2.85E-2,-8.75E-2,-5E-4,1.75E-2,-7.35E-2,-2.3105276E-1,-1.55E-2,-2.4500001E-2,5.0499998E-2,6.9E-2,-1.3E-2,7.437577E3,-1.55E-2,1.4250001E-1,7.5000003E-3,4.0077753E2,-4.75E-2,-1.3E-2,4.5E-3,-1.2283065E-1,1.8385433E-1,-5.1E-2,1.25E-1,1.2650001E-1,5.8E-2,-4.5500003E-2,1.2071567E-1,-1.6727522E-1,-4.1E-2,1.7750001E-1,-3.0000001E-2,5.15E-2,3.254485E2,9.5E-3,1.75E-2,5E-3,-1.25E-2,5E-4,1.09500006E-1,-1.9960026E-1,9E-3,6.529815E2,-2.2864819E-1,7.0999995E-2,-3.5E-3,1.9413127E-1,-1.4763834E-1,-2.2002243E-1,6.25363E-2,-2.5907132E-1,1.11403406E-1,1.3188767E-1,-1.6171467E-1,2.9830683E-2,-2.294343E-1,-1.0493576E-1,2.3855376E-1,1.9023572E-1,-1.5611891E-1,-2.3571907E-1,1.373112E-1,-2.0261626E-1,1.2108352E-1,1.14298664E-1,-2.0127898E-2,-2.2141545E-1,-3.038233E-2,-1.607597E-1,1.9943681E-1,1.7700444E-1,-1.9523636E-1,4.4253673E-2,-2.52846E-1,-2.3533468E-1,9.433269E-2,-4.3937165E-1,-2.121704E-1,-6.989323E-2,1.9643337E-1,-2.4917057E-1,1.0623248E-1,1.7804316E-1,-1.7353477E-1,-2.7843985E-1,1.2633948E-1],"split_indices":[248,210,23,243,219,107,132,164,241,161,155,13,155,0,127,148,201,173,93,259,105,172,156,277,41,6,200,0,0,6,38,130,60,24,0,0,108,186,158,2,274,56,42,177,40,85,9,0,58,278,0,250,19,0,0,0,0,0,0,0,0,0,0,0,0,0,0,0,0,0,0,0,0,0,0,0,0,0,0,0,0,0,0,0,0,0,0,0,0,0,0,0,0],"split_type":[0,0,0,0,0,0,0,0,0,0,0,0,0,0,0,0,0,0,0,0,0,0,0,0,0,0,0,0,0,0,0,0,0,0,0,0,0,0,0,0,0,0,0,0,0,0,0,0,0,0,0,0,0,0,0,0,0,0,0,0,0,0,0,0,0,0,0,0,0,0,0,0,0,0,0,0,0,0,0,0,0,0,0,0,0,0,0,0,0,0,0,0,0],"sum_hessian":[7.403493E2,5.347585E2,2.0559084E2,1.0398603E2,4.3077246E2,1.8773425E2,1.7856596E1,6.178139E1,4.2204636E1,2.9791608E2,1.3285637E2,4.0457687E1,1.4727657E2,1.1777497E1,6.079098E0,1.5402431E1,4.6378963E1,1.8193575E1,2.4011059E1,6.121686E1,2.3669922E2,7.483528E1,5.8021088E1,1.8604536E1,2.185315E1,3.4300133E1,1.1297643E2,1.0626206E0,5.0164776E0,9.324355E0,6.0780754E0,3.93599E1,7.019062E0,1.5110304E1,3.0832717E0,2.9196336E0,2.1091427E1,5.3635868E1,7.580996E0,4.5009487E1,1.9168974E2,6.472848E1,1.0106802E1,3.220561E1,2.5815481E1,1.1056384E1,7.548152E0,2.0019991E0,1.985115E1,2.8639038E1,5.6610937E0,1.0598165E2,6.994777E0,7.756623E0,1.5677323E0,5.064303E0,1.0137725E0,3.8244953E1,1.1149453E0,4.2097797E0,2.8092823E0,1.9029828E0,1.3207321E1,2.0160046E0,1.9075422E1,5.180065E1,1.8352163E0,3.7272265E0,3.8537693E0,3.202087E1,1.2988614E1,1.0622772E2,8.546202E1,4.5938328E1,1.8790148E1,1.6410933E0,8.465709E0,2.9736446E1,2.4691617E0,1.4436581E1,1.13789E1,2.3379962E0,8.718388E0,2.7471616E0,4.80099E0,3.7030742E0,1.6148077E1,2.5218484E0,2.611719E1,1.0477661E2,1.2050372E0,2.6490297E0,4.3457475E0],"tree_param":{"num_deleted":"0","num_feature":"283","num_nodes":"93","size_leaf_vector":"0"}},{"base_weights":[8.1763744E-2,2.2371185E-1,-1.4404832E-1,-6.790376E-1,2.8772372E-1,-5.0681627E-1,5.863104E-2,-9.7213423E-1,5.241217E-1,-2.9967088E-2,4.3763104E-1,-8.931729E-1,1.318682E-1,-2.4584337E-1,3.6293116E-1,-1.219894E0,2.0214213E-1,-3.4259862E-1,8.2542366E-1,1.1486631E-1,-1.1906714E0,5.2112955E-1,-2.2193386E-1,7.1828705E-1,-1.0787765E0,5.606945E-1,-8.538167E-1,9.087937E-3,-1.0783225E0,7.912156E-2,1.1249433E0,7.688468E-1,-6.4868265E-1,3.4113124E-1,-6.5143883E-1,-1.4275135E0,3.8941285E-1,-3.1725866E-1,5.9717125E-1,-1.052919E0,5.385681E-1,-6.158381E-1,1.1617001E0,6.575312E-1,-1.1632972E0,-4.6848541E-1,8.8015234E-1,6.072836E-1,-1.0757383E0,-5.82493E-1,3.9313787E-1,3.0690613E-1,-1.4438636E0,4.3617988E-1,-8.4874344E-1,3.995655E-2,1.2677565E0,-1.4280559E0,4.4389942E-1,4.3696916E-1,-1.1992315E0,-1.4329802E0,4.0758154E-1,6.2472856E-1,-9.0814966E-1,-1.2800776E0,2.735057E-1,8.0896425E-1,-1.0243733E0,-1.2202591E0,6.022187E-1,-1.0917505E0,7.331554E-1,1.023752E0,-8.2577E-1,-1.1294681E0,7.358327E-1,5.5719674E-1,-1.0367969E0,-6.7256624E-1,8.42635E-1,-3.6712095E-1,8.602068E-1,-1.1392704E0,6.202851E-1,6.7954445E-1,-7.971393E-1,1.3256056E0,3.872746E-1],"categories":[],"categories_nodes":[],"categories_segments":[],"categories_sizes":[],"default_left":[1,1,1,1,1,1,1,1,1,1,1,1,1,1,1,0,1,0,0,1,1,1,1,1,1,1,1,1,1,1,1,0,0,1,1,0,0,1,1,1,1,0,0,0,1,1,1,0,0,1,1,1,0,1,1,1,1,0,0,0,0,0,0,0,0,0,0,0,0,0,0,0,0,0,0,0,0,0,0,0,0,0,0,0,0,0,0,0,0],"id":17,"left_children":[1,3,5,7,9,11,13,15,17,19,21,23,25,27,29,-1,31,-1,-1,33,35,37,39,41,43,45,47,49,51,53,55,-1,-1,57,59,-1,-1,61,63,65,67,-1,-1,-1,69,71,73,-1,-1,75,77,79,-1,81,83,85,87,-1,-1,-1,-1,-1,-1,-1,-1,-1,-1,-1,-1,-1,-1,-1,-1,-1,-1,-1,-1,-1,-1,-1,-1,-1,-1,-1,-1,-1,-1,-1,-1],"loss_changes":[2.2247673E1,2.4809713E1,1.9743414E1,1.0560175E1,1.8988998E1,2.3858294E1,1.610974E1,7.0162506E0,1.9104203E0,2.1768202E1,1.5027988E1,1.8742779E1,1.6174917E1,1.8479128E1,1.8701134E1,0E0,2.8670754E0,0E0,0E0,2.0215992E1,5.930931E0,1.5531296E1,2.0239237E1,4.7409897E0,8.72921E0,9.118474E0,4.4321136E0,1.5591175E1,1.0778349E1,2.1699991E1,3.591074E0,0E0,0E0,1.6939583E1,1.640149E1,0E0,0E0,1.7295967E1,9.734261E0,4.9340267E0,7.9772563E0,0E0,0E0,0E0,5.975586E0,5.9869094E0,5.8807554E0,0E0,0E0,2.0314682E1,1.0335999E1,3.2356532E0,0E0,1.637666E1,8.487118E0,2.5581412E0,5.428314E-1,0E0,0E0,0E0,0E0,0E0,0E0,0E0,0E0,0E0,0E0,0E0,0E0,0E0,0E0,0E0,0E0,0E0,0E0,0E0,0E0,0E0,0E0,0E0,0E0,0E0,0E0,0E0,0E0,0E0,0E0,0E0,0E0],"parents":[2147483647,0,0,1,1,2,2,3,3,4,4,5,5,6,6,7,7,8,8,9,9,10,10,11,11,12,12,13,13,14,14,16,16,19,19,20,20,21,21,22,22,23,23,24,24,25,25,26,26,27,27,28,28,29,29,30,30,33,33,34,34,37,37,38,38,39,39,40,40,44,44,45,45,46,46,49,49,50,50,51,51,53,53,54,54,55,55,56,56],"right_children":[2,4,6,8,10,12,14,16,18,20,22,24,26,28,30,-1,32,-1,-1,34,36,38,40,42,44,46,48,50,52,54,56,-1,-1,58,60,-1,-1,62,64,66,68,-1,-1,-1,70,72,74,-1,-1,76,78,80,-1,82,84,86,88,-1,-1,-1,-1,-1,-1,-1,-1,-1,-1,-1,-1,-1,-1,-1,-1,-1,-1,-1,-1,-1,-1,-1,-1,-1,-1,-1,-1,-1,-1,-1,-1],"split_conditions":[2.55E-2,-4.35E-2,1.85E-2,7.25E-2,3.35E-2,1.6049999E-1,-2.1499999E-2,1.055E-1,-7E-3,2.25E-2,4.75E-2,-1.2900001E-1,6.5E-2,-5.0499998E-2,1.4050001E-1,-2.4397881E-1,-2.4E-2,-6.851973E-2,1.6508473E-1,2.95E-2,6.6E-2,-2.75E-2,-1.15E-2,-6.35E-2,-1.125E-1,6.75E-2,-1.01500005E-1,2.55E-2,-6.75E-2,-2.85E-2,4.5500003E-2,1.5376936E-1,-1.2973653E-1,-1.165E-1,-1.25E-2,-2.855027E-1,7.788257E-2,5.9E-2,-3.185E-1,3.9854438E3,-7.999999E-3,-1.2316763E-1,2.3234002E-1,1.3150625E-1,1.00999996E-1,3.65E-2,1.325E-1,1.2145672E-1,-2.1514766E-1,6.3E-2,9.85E-2,-9.000001E-3,-2.8877273E-1,3.4500003E-2,1.02E-1,8.3000004E-2,4.5E-3,-2.8561118E-1,8.877989E-2,8.7393835E-2,-2.398463E-1,-2.8659603E-1,8.151631E-2,1.24945715E-1,-1.8162994E-1,-2.560155E-1,5.470114E-2,1.6179286E-1,-2.0487466E-1,-2.4405181E-1,1.2044374E-1,-2.183501E-1,1.4663109E-1,2.047504E-1,-1.6515401E-1,-2.2589362E-1,1.4716654E-1,1.1143935E-1,-2.0735939E-1,-1.3451324E-1,1.6852699E-1,-7.342419E-2,1.7204136E-1,-2.2785409E-1,1.2405702E-1,1.3590889E-1,-1.5942787E-1,2.6512113E-1,7.745492E-2],"split_indices":[204,227,169,132,46,243,103,121,233,89,148,157,49,51,236,0,205,0,0,251,190,230,157,51,254,37,87,24,174,39,204,0,0,12,156,0,0,222,7,274,62,0,0,0,2,198,79,0,0,248,107,246,0,159,231,32,36,0,0,0,0,0,0,0,0,0,0,0,0,0,0,0,0,0,0,0,0,0,0,0,0,0,0,0,0,0,0,0,0],"split_type":[0,0,0,0,0,0,0,0,0,0,0,0,0,0,0,0,0,0,0,0,0,0,0,0,0,0,0,0,0,0,0,0,0,0,0,0,0,0,0,0,0,0,0,0,0,0,0,0,0,0,0,0,0,0,0,0,0,0,0,0,0,0,0,0,0,0,0,0,0,0,0,0,0,0,0,0,0,0,0,0,0,0,0,0,0,0,0,0,0],"sum_hessian":[6.9207196E2,4.2495166E2,2.671203E2,2.7501028E1,3.9745065E2,9.520892E1,1.7191136E2,2.2268345E1,5.2326837E0,1.27675224E2,2.6977542E2,5.907468E1,3.6134243E1,8.60271E1,8.588426E1,1.8356476E1,3.9118686E0,1.3144622E0,3.9182217E0,1.143123E2,1.3362921E1,2.3964688E2,3.012853E1,5.804909E0,5.326977E1,2.5480158E1,1.0654087E1,6.661621E1,1.9410892E1,6.338172E1,2.2502542E1,2.4058003E0,1.5060683E0,8.868218E1,2.5630121E1,1.1704995E1,1.6579258E0,1.9664652E1,2.1998224E2,1.4213366E1,1.5915165E1,1.3510528E0,4.4538565E0,2.1580215E0,5.1111748E1,5.9250956E0,1.9555063E1,1.1758672E0,9.478219E0,2.601958E1,4.0596626E1,4.086267E0,1.5324626E1,4.6151676E1,1.7230043E1,2.766274E0,1.9736269E1,4.160579E0,8.452161E1,8.648582E0,1.6981539E1,7.359487E0,1.2305164E1,2.1660197E2,3.3802602E0,1.2164978E1,2.0483873E0,1.397912E1,1.9360445E0,4.9813427E1,1.2983227E0,3.9616985E0,1.9633971E0,1.8405613E1,1.1494486E0,1.8490927E1,7.5286536E0,3.696581E1,3.6308167E0,1.3544694E0,2.7317977E0,1.5991213E1,3.0160463E1,1.4572535E1,2.6575089E0,1.6748257E0,1.0914483E0,1.8045126E1,1.6911428E0],"tree_param":{"num_deleted":"0","num_feature":"283","num_nodes":"89","size_leaf_vector":"0"}},{"base_weights":[4.2803217E-2,-1.925668E-1,2.4480161E-1,-1.4118779E0,-1.260491E-1,7.513812E-2,5.202514E-1,2.3679012E-1,-1.7034843E0,2.2991899E-1,-3.419563E-1,-1.5545622E-1,3.9822602E-1,5.677573E-1,-9.100412E-1,-2.166155E-1,5.57448E-1,-7.329623E-1,-1.9549211E0,-7.660567E-2,6.949582E-1,3.6849192E-1,-5.133256E-1,-3.4052062E-1,6.163408E-1,6.4885724E-1,-4.5766708E-1,6.202824E-1,-7.8562135E-1,-2.1408994E-1,-8.2686E-1,-2.1834216E0,-8.545317E-1,-7.590016E-1,2.9203027E-1,8.025466E-1,-1.1466324E0,6.3728243E-1,-9.5272267E-1,-4.130439E-2,-7.529849E-1,-1.247442E0,-1.2614657E-1,-1.0019168E0,8.928199E-1,7.454084E-1,-8.728035E-1,-1.221129E0,7.884294E-1,7.745177E-1,2.7621683E-1,5.2940655E-1,-1.3811872E0,-6.327528E-1,-2.3604624E0,-1.1386466E0,4.283704E-1,-2.9341844E-1,7.2816896E-1,8.7415093E-1,-9.16658E-1,8.3560324E-1,-5.864603E-1,-1.025747E0,2.7516448E-1,-1.146687E0,-3.0431107E-1,-1.3986778E0,5.788198E-1,2.9011703E-1,-5.214502E-1,1.0849806E0,-1.1133527E0,-7.6588006E-3,9.1959226E-1,1.1940794E-1,-1.1846392E0,-1.2770607E-1,1.0210803E0,8.2085925E-1,-4.308881E-1,-1.0747013E0,5.04219E-1],"categories":[],"categories_nodes":[],"categories_segments":[],"categories_sizes":[],"default_left":[1,1,1,1,1,1,1,1,1,1,1,1,1,1,0,0,0,1,1,1,1,1,1,1,1,1,1,1,1,0,0,1,0,1,1,1,0,1,0,1,1,1,1,0,1,1,1,0,1,1,1,0,0,0,0,0,0,0,0,0,0,0,0,0,0,0,0,0,0,0,0,0,0,0,0,0,0,0,0,0,0,0,0],"id":18,"left_children":[1,3,5,7,9,11,13,15,17,19,21,23,25,27,-1,-1,-1,29,31,33,35,37,39,41,43,45,47,49,51,-1,-1,53,-1,55,57,59,-1,61,-1,63,65,67,69,-1,71,73,75,-1,77,79,81,-1,-1,-1,-1,-1,-1,-1,-1,-1,-1,-1,-1,-1,-1,-1,-1,-1,-1,-1,-1,-1,-1,-1,-1,-1,-1,-1,-1,-1,-1,-1,-1],"loss_changes":[3.0319578E1,2.3718098E1,1.5994858E1,7.683792E0,2.163559E1,1.5966963E1,9.39109E0,5.792911E-1,1.7369041E0,1.5233377E1,2.1494257E1,1.8105719E1,1.942973E1,9.517002E0,0E0,0E0,0E0,3.114438E-2,5.774307E-1,1.6594517E1,9.32238E0,1.2890902E1,1.5964962E1,1.9616037E1,1.1895765E1,1.0847141E1,2.0739883E1,6.3046875E0,4.793497E0,0E0,0E0,5.387993E-1,0E0,1.0903519E1,1.11881275E1,5.80591E0,0E0,7.6109943E0,0E0,1.544689E1,1.6207352E1,6.148943E0,1.3870283E1,0E0,9.507685E0,8.638344E0,1.5652184E0,0E0,1.9432664E0,5.0606155E0,1.273155E1,0E0,0E0,0E0,0E0,0E0,0E0,0E0,0E0,0E0,0E0,0E0,0E0,0E0,0E0,0E0,0E0,0E0,0E0,0E0,0E0,0E0,0E0,0E0,0E0,0E0,0E0,0E0,0E0,0E0,0E0,0E0,0E0],"parents":[2147483647,0,0,1,1,2,2,3,3,4,4,5,5,6,6,7,7,8,8,9,9,10,10,11,11,12,12,13,13,17,17,18,18,19,19,20,20,21,21,22,22,23,23,24,24,25,25,26,26,27,27,28,28,31,31,33,33,34,34,35,35,37,37,39,39,40,40,41,41,42,42,44,44,45,45,46,46,48,48,49,49,50,50],"right_children":[2,4,6,8,10,12,14,16,18,20,22,24,26,28,-1,-1,-1,30,32,34,36,38,40,42,44,46,48,50,52,-1,-1,54,-1,56,58,60,-1,62,-1,64,66,68,70,-1,72,74,76,-1,78,80,82,-1,-1,-1,-1,-1,-1,-1,-1,-1,-1,-1,-1,-1,-1,-1,-1,-1,-1,-1,-1,-1,-1,-1,-1,-1,-1,-1,-1,-1,-1,-1,-1],"split_conditions":[8.5E-3,-8.6500004E-2,7.15E-2,-2.5E-3,-3.75E-2,5.95E-2,7.45E-2,1.35E-2,1.5E-3,-5E-4,-5.35E-2,1.3749999E-1,3.35E-2,7.9500005E-2,-1.8200825E-1,-4.33231E-2,1.1148961E-1,-9.35E-2,9.75E-2,-1.45E-2,8.15E-2,1.01500005E-1,-3.25E-2,-4.5E-3,-4.25E-2,7.85E-2,3.5E-3,7.35E-2,-4.2999998E-2,-4.281799E-2,-1.65372E-1,-6.65E-2,-1.7090635E-1,-1.5000001E-2,3.75E-2,5.1E-2,-2.2932649E-1,-3.5E-3,-1.9054453E-1,-9.5E-3,5.95E-2,9.9E-2,6.75E-2,-2.0038335E-1,3.35E-2,-6.25E-2,-4E-2,-2.4422579E-1,1.695E-1,6.4500004E-2,-2.3E-2,1.0588131E-1,-2.7623746E-1,-1.2655056E-1,-4.7209248E-1,-2.2772932E-1,8.567408E-2,-5.868369E-2,1.456338E-1,1.7483018E-1,-1.833316E-1,1.6712065E-1,-1.1729206E-1,-2.051494E-1,5.5032898E-2,-2.2933741E-1,-6.0862213E-2,-2.7973557E-1,1.1576396E-1,5.8023404E-2,-1.04290046E-1,2.1699612E-1,-2.2267054E-1,-1.5317601E-3,1.8391846E-1,2.3881588E-2,-2.3692785E-1,-2.5541214E-2,2.0421605E-1,1.6417186E-1,-8.617762E-2,-2.1494026E-1,1.008438E-1],"split_indices":[248,225,28,107,111,90,23,56,195,76,89,97,43,143,0,0,0,47,107,176,185,102,177,202,144,185,50,236,199,0,0,233,0,70,145,64,0,151,0,89,119,141,191,0,109,213,61,0,243,125,178,0,0,0,0,0,0,0,0,0,0,0,0,0,0,0,0,0,0,0,0,0,0,0,0,0,0,0,0,0,0,0,0],"split_type":[0,0,0,0,0,0,0,0,0,0,0,0,0,0,0,0,0,0,0,0,0,0,0,0,0,0,0,0,0,0,0,0,0,0,0,0,0,0,0,0,0,0,0,0,0,0,0,0,0,0,0,0,0,0,0,0,0,0,0,0,0,0,0,0,0,0,0,0,0,0,0,0,0,0,0,0,0,0,0,0,0,0,0],"sum_hessian":[6.357197E2,2.9362845E2,3.420913E2,1.4143504E1,2.7948492E2,2.1248425E2,1.2960706E2,2.1538975E0,1.1989607E1,1.0549292E2,1.7399202E2,1.24292816E2,8.8191444E1,1.26024315E2,3.58274E0,1.0266687E0,1.127229E0,3.2726374E0,8.716969E0,6.408644E1,4.1406483E1,3.358945E1,1.4040257E2,1.00704346E2,2.358847E1,6.840291E1,1.978853E1,1.2183744E2,4.1868763E0,1.0040975E0,2.2685401E0,6.40311E0,2.313859E0,2.2106085E1,4.1980354E1,3.9654045E1,1.7524368E0,2.8341295E1,5.2481546E0,4.7675533E1,9.2727036E1,1.833177E1,8.2372574E1,3.0591483E0,2.0529322E1,6.480132E1,3.6015866E0,1.2282991E1,7.5055404E0,8.3262184E1,3.8575253E1,1.3397511E0,2.8471253E0,1.1248442E0,5.278266E0,1.6781485E1,5.3245993E0,1.8062063E1,2.3918291E1,3.854039E1,1.1136565E0,2.4661762E1,3.6795325E0,1.105267E1,3.6622864E1,4.856048E1,4.4166557E1,1.7146011E1,1.1857594E0,4.0252197E1,4.2120377E1,1.9153854E1,1.3754685E0,1.2352502E1,5.2448822E1,1.0088065E0,2.59278E0,1.6113662E0,5.894174E0,8.04869E1,2.7752829E0,5.034164E0,3.354109E1],"tree_param":{"num_deleted":"0","num_feature":"283","num_nodes":"83","size_leaf_vector":"0"}},{"base_weights":[1.0000867E-1,2.728576E-1,-4.7722694E-2,1.16787486E-1,5.6685257E-1,4.0729165E-1,-1.8071218E-1,-4.7115406E-1,2.379127E-1,-1.3262931E0,6.1592805E-1,-4.480184E-1,7.056402E-1,-5.0962156E-1,1.01763494E-1,-1.370089E0,2.2784047E-1,4.3501216E-3,7.0453376E-1,6.679498E-1,-1.1021539E0,-9.6474296E-1,6.6232395E-1,8.278317E-1,-9.366472E-1,1.1605198E-3,-8.5234714E-1,2.7607378E-1,-5.399047E-1,6.0417783E-1,-9.5768803E-1,-2.6334617E-1,5.2813876E-1,8.152939E-1,-8.4243095E-1,7.799554E-1,-5.3057065E-3,-1.5100658E0,-1.0176938E-1,3.4104744E-1,-1.118598E0,8.920987E-1,-1.960077E-1,9.1017777E-1,-8.6152065E-1,3.311105E-1,-1.0620698E0,2.9890332E-1,-1.0704799E0,4.507551E-3,7.4661946E-1,1.0500995E-1,-1.1051255E0,8.943631E-1,-7.301684E-1,-7.5667344E-2,-1.1628988E0,-4.9417788E-1,5.92416E-1,7.3697954E-1,-7.812484E-1,-5.7284176E-1,9.2067885E-1,-6.7286444E-1,8.2375E-1,-6.478733E-1,6.8575495E-1,9.8266625E-1,-8.1796336E-1,-6.881032E-1,7.1051514E-1,-1.220467E0,3.194765E-1,-8.986265E-1,8.838476E-1,-1.1694084E0,2.6780254E-1,2.1709432E-1,-9.0947324E-1,9.4092506E-1,-2.9103985E-1,8.7863874E-1,-4.5305884E-1,3.9570063E-1,-1.2737257E0],"categories":[],"categories_nodes":[],"categories_segments":[],"categories_sizes":[],"default_left":[1,1,1,1,1,1,1,1,1,0,1,1,1,1,1,0,1,1,1,1,1,1,1,1,0,1,1,1,1,1,1,1,1,1,0,1,1,0,0,0,0,0,0,1,0,1,1,1,1,1,1,1,1,0,0,0,0,0,0,0,0,0,0,0,0,0,0,0,0,0,0,0,0,0,0,0,0,0,0,0,0,0,0,0,0],"id":19,"left_children":[1,3,5,7,9,11,13,15,17,-1,19,21,23,25,27,-1,29,31,33,35,37,39,41,43,-1,45,47,49,51,53,55,57,59,61,-1,63,65,-1,-1,-1,-1,-1,-1,67,-1,69,71,73,75,77,79,81,83,-1,-1,-1,-1,-1,-1,-1,-1,-1,-1,-1,-1,-1,-1,-1,-1,-1,-1,-1,-1,-1,-1,-1,-1,-1,-1,-1,-1,-1,-1,-1,-1],"loss_changes":[1.57230625E1,1.2949316E1,2.0198008E1,1.3397566E1,9.931713E0,1.9588558E1,2.4026402E1,2.0547314E1,1.6928007E1,0E0,9.344204E0,1.2195922E1,1.2089666E1,2.0901033E1,1.57693E1,0E0,9.044005E0,1.4796862E1,9.56493E0,7.1002846E0,1.1553383E0,3.2248945E0,1.553447E0,8.158142E0,0E0,1.7520203E1,1.8262848E1,1.4114611E1,1.1114124E1,6.467064E0,8.0952644E-1,1.4090265E1,1.033511E1,